solver_type L2R_LR
nr_class 2
label 1 -1
nr_feature 8058
bias 0.000000000000000
w
0.01167449199402494 
-0.2230025000338330 
-0.04860117430406956 
-0.3829142626441594 
-0.1927314327007846 
-0.3586226602648192 
-0.03801475279748687 
0.005420900744878350 
0.01706559599895884 
-0.2500841344364841 
0.005981479014342749 
0.02520512884779243 
0.003810418513406541 
-0.2397282021320460 
-0.001696922368880389 
0.03414726480987761 
-0.07877766285245377 
0.006704939342213804 
-0.03806600753445907 
0.01119164483739497 
-0.1465689372600044 
0.01220984949398396 
-0.1112889136636259 
-0.2348743228636100 
0.004458267808918709 
0.01293390317672202 
0.1295917854186975 
0.0004720562872159969 
-0.01174082078545664 
-0.1926656973092911 
-0.02001507784959047 
-0.05079243033693362 
-0.01762787648273420 
-0.01481105841851494 
0.2821729833469838 
-0.05931642167373676 
0.006114201545313615 
-0.09817228344755585 
0.008770081632827819 
-0.1083151759457210 
-0.08695362915665375 
-0.07014170938810134 
-0.01435828157940762 
-0.3411609633404377 
-0.2397487401404174 
-0.01729585931590050 
0.1759055884976854 
-0.001875266134267559 
-0.02017387133430369 
-0.09073300285909368 
-0.2771995740413797 
0.5731025886402041 
0.07278715783981272 
0.01368528652963587 
-0.03835780154158639 
-0.06168492645641081 
-0.05603797029090449 
-0.1782373938843840 
-0.2552241943480256 
-0.1055963660133176 
0.01592558365293167 
-0.05909126647289301 
-0.04637318211269501 
-0.1383492344566892 
0.02336117291032205 
0.005790250002702288 
-0.0009864758868487800 
0.03072263975035304 
0.0009219808720714456 
-0.1392061397548117 
-0.001323113071094734 
0.003158973074618470 
0.003771640739092848 
0.08054659014834250 
-0.1591821079007850 
1.029600577458017 
-0.1075665566994384 
0.1323833342242704 
0.0009789384301975186 
-0.1325273931473958 
-0.01964003228828384 
0.002663720628612499 
0.02889949032052071 
-0.1251117331401919 
-0.03291433375787408 
0.01594254879447669 
-0.01840442815757646 
-0.5952491088833712 
0.01590726401354434 
0.003780712139413858 
0.005890556032608345 
0.02459714166148810 
0.1299193700195631 
-0.4018008846837445 
0.03158104361582803 
-0.01802949534910765 
-0.4541238431258538 
0.008013927473035344 
-0.2308103049788361 
-0.004565339792586425 
-0.006783454468263724 
-0.05803220115622002 
-0.3428303247764555 
0.007725225709549302 
-0.001588777651448070 
-0.01166845572269191 
0.01507323810929662 
0.005212644323882109 
-0.08216836552173540 
-0.02669559291133617 
-0.2198226460942633 
-0.7607308426942950 
0.3213219956541297 
0.0006073078879011956 
-0.02150838621346080 
-0.1251423160049913 
0.4902529700320257 
-0.03676736914985829 
-0.002506838119489483 
0.005145022381356887 
-0.2199262859890971 
-0.02370921059771516 
-0.2196955794869701 
0.7659818810274002 
-0.4579828906372898 
-0.4879041383795048 
0.002034562221172428 
0.4723864815006376 
0.08426667124970626 
-0.02739580633788851 
-0.008688885252194554 
-0.004510642233935778 
-0.007049791688623559 
0.9297961547371497 
-0.003217733001101745 
0.01198906315227227 
-0.9353337648692950 
0.0008875361308903012 
-0.006646917208169565 
0.004015829777803873 
0.003081419458703295 
-0.02961981153605090 
-0.03823558107778850 
0.003732283610929672 
-0.4147206493555620 
-0.0004732799494557331 
-0.09713575690022021 
0.3476330032364324 
-0.3083625897348259 
-0.3863244290451603 
0.003418185964928790 
-0.1535921430899195 
-0.5629314480733455 
-0.1496605912051751 
-0.02057280620724611 
0.04518844639541223 
-0.1123529095881301 
0.1574872607827515 
-0.1062152363454348 
0.03324362200763303 
0.06008073718047829 
-0.2306841186454920 
-0.001523234218071897 
-0.0002465719982634592 
-0.2718221886527564 
0.007040276469884995 
-0.3052690039783844 
0.2274096562970301 
-0.03495839143739905 
0.5194636834783339 
0.001808845115267694 
0.3187339474258905 
-0.04291971138381878 
0.001404144649320093 
0.02206850878010241 
0.005624897933495824 
-0.07062110419615562 
-0.008873828095812846 
0.001019161438573764 
-0.1025695566435746 
-0.1198785651409273 
0.04249936667868015 
-0.1785126049218910 
0.1580493152068856 
0.1028318173412146 
0.007790464774830920 
0.3718810312640152 
0.001849147378972869 
-0.1985556715537341 
-0.06675717342709564 
-0.0004305417293536805 
-0.2609401207505728 
-0.005284964840838739 
-0.1036722407324639 
-0.1012386232802029 
0.03308037971710132 
-0.1425469285799410 
0.002934969336310988 
0.04545120465117818 
-0.09143568676953466 
-0.1382592926952889 
0.003777634071201900 
0.003717051985544770 
-0.2826320904947881 
-0.06014740377837245 
0.1420964998524530 
-0.0007993329952169087 
0.01754426112952037 
-0.03078785191364403 
0.01266182078496490 
0.8302765609119978 
-0.1072387374398506 
0.001946833125269585 
-0.3253612256203242 
-0.07032947253211676 
-0.1061792459669362 
-0.1902447432059433 
0.01368528652963587 
0.1619274846545286 
-0.03718551798139903 
0.003306505828881041 
-0.1233591608726464 
0.006908314530179146 
0.001464988873856940 
0.3176458139830060 
0.01815729387218916 
-0.1280238166608229 
0.002944779199156138 
0.003317926604312087 
0.4858703241619654 
-0.08593644384044619 
0.002584729209564591 
-0.09990522364136094 
-0.1040248778351485 
-0.09501211929460851 
-0.09206113473078456 
-0.02312181660171701 
0.007979918050885652 
-0.2706653666840230 
-0.1479463915685139 
-0.2445554854550208 
0.03680473725078670 
-0.1198785651409273 
-0.3600165449959019 
-0.01067502721479095 
-0.02980067028331560 
-0.1891399855305627 
0.04853774426133221 
-0.04891167044293261 
-0.006039865978546771 
0.03215589708149527 
-0.007900996655155017 
0.04227702502120825 
-0.007888947721268118 
-0.003966759577312416 
-0.1491421721676575 
-0.04652910131159552 
0.01616369886457453 
-0.4100740036501183 
0.2440688249091046 
0.3619552167746726 
-0.2086011835561033 
-0.1694397782908328 
0.04314664493857681 
-0.1686315896439888 
-0.05742468611485179 
-0.01774100136970919 
-0.2453897531873738 
0.006371941857840228 
-0.06037098721074921 
-0.2356022917578092 
0.004188987275762172 
-0.05337216271036387 
0.3881943158063654 
-0.04007639580600884 
-0.06728010277966098 
-0.2421485949177865 
0.01530847941062636 
0.08597897350645678 
-0.02045223284975500 
-0.2594871984783465 
0.04617634198508253 
-0.04044875560263948 
-0.1876332776857933 
-0.08037433929435528 
-0.05497718652329102 
-0.06211350482948779 
0.2663037769820728 
-0.1645698731231360 
0.6554456748100265 
0.002761180808346976 
-0.08489286357143502 
0.009629115101629917 
0.2289664115639610 
-0.09310183215502274 
-0.2369441336788967 
0.04431725237585395 
-0.3565729349598958 
-0.005486696271116432 
-0.1930606636917021 
-0.04435189475360642 
-0.3340347536725140 
0.008206841141000714 
-0.2420429281145844 
0.01813129273762325 
-0.1301362669548273 
-0.06270668280589407 
-0.01052946018494050 
-0.05068281238411362 
-0.2549265568265600 
-0.003259456481029008 
-0.06567600840687686 
-0.5028167608094435 
-0.001587073386935713 
0.004124197173830641 
-0.2668763493533184 
0.04293727968013258 
0.08680652095513791 
-0.05511399265009037 
-0.07228681980980178 
0.009809066764380342 
0.05614233134037858 
-0.001046326614987805 
-0.009413851728626018 
-0.005451312667736262 
-0.1605531743641143 
-0.4136534179872581 
-0.01208438584633996 
0.6167270575387233 
7.263058189753934e-05 
0.004551456588589721 
0.03086594616380282 
-0.02150838621346080 
-0.09094450129534151 
-0.02739580633788851 
-0.004889466818017024 
-0.1977677584811536 
-0.07177599123016705 
0.1229564268242194 
0.01355933086373351 
0.1003450646139638 
0.006876049276266862 
0.08266521982991817 
-0.01645195688563488 
0.1012460548604783 
-0.05742468611485179 
0.005589009220342205 
0.2658939721152092 
-0.02165573764556434 
-0.3891265060071338 
0.02235563940034624 
-0.008887541123420167 
0.001200876352124237 
-0.0009332884142367888 
-0.02759633123184959 
-0.1137275781814859 
-0.03512119766659800 
-0.01522135610697034 
0.4461203133768856 
0.003079876932319379 
-0.002339248323688335 
-0.1948917174260077 
-0.09583730319501349 
-0.04106780937459539 
0.2433136353884465 
0.005940158454351866 
0.1449444118018906 
-0.07375626657610705 
-0.1073208131541245 
0.3837698651624183 
-0.001624507254000592 
0.0008768730648352650 
0.009225004186083297 
-0.02501486157818419 
-0.1715430825249042 
-0.7539901441234680 
0.002683792734278946 
0.001146993876848256 
-0.07556220207247995 
-0.4149191440659733 
-0.06744007000365654 
0.1987280351770750 
-0.04645673890168658 
-0.6260549786966545 
0.01008944836093237 
0.003893949484136408 
-0.06177856118010440 
0.2047160530250354 
-0.1235246881437765 
-0.006067916088467141 
-0.3459429956294457 
-0.01583137077320821 
0.01460953929662865 
0.2017202602000047 
-0.1091570399963610 
0.003833723909689053 
0.3920474078137706 
0.005793312915855211 
-0.2749920651585048 
-0.01011761126804954 
-0.01871536220529487 
0.0007856725601595000 
-0.3940949524610311 
-0.6835003639777094 
-0.01476235168724872 
0.001187673638842706 
0.01266842793882611 
-0.01046159819709211 
-0.2573953763078685 
-0.2202950928341400 
0.005272857139456948 
-0.002068429924829043 
0.009021158378757742 
0.09416260392973402 
-0.1203815542945413 
0.003316899853781874 
0.01776268302724560 
-0.01542664596015985 
-0.1663795446538035 
-0.007888947721268118 
0.4851589582361642 
-0.08913913087197793 
0.04103609537280511 
-0.02469534285385395 
0.08461189804004753 
-0.09815727206997045 
-0.6820181658248160 
-0.06390562969874458 
0.008445586737451098 
-0.1120595972237020 
-0.1820808461741988 
-0.3186895084814856 
-0.1672398802581821 
-0.1181789316580430 
0.3259551692972054 
-0.08213451265849933 
0.2037101575304028 
-0.07122897221398199 
-0.4966399024774089 
-0.1451905323144253 
0.001534276334071198 
0.008013927473035344 
-0.002014250652595055 
-0.03725764280787705 
-0.008990037634099307 
0.007867671703897624 
-0.01777562746679351 
-0.07775516652107024 
0.3454959168347161 
0.2573614099783608 
-0.1030495496870477 
-0.05292095894534397 
-0.1907967411045436 
-0.01217186714835718 
-0.1524236879649988 
0.01158292590120671 
0.08938646740762651 
-0.005902167543739655 
0.004824653728727215 
-0.1796796550461427 
-0.001672285757312096 
0.1420964998524530 
-0.01816886714752356 
0.04004783415113116 
-0.09134705664879916 
-0.04602633494655350 
-0.002073963614912831 
-0.2855556145518466 
0.009743159192197327 
-0.3791377599828070 
0.003193726756057542 
-0.03933133119566478 
-0.02911541799119959 
-0.1860920191428239 
0.01434883797087331 
-0.04292863792225761 
-0.1055909566479954 
-0.1018490375087995 
-0.02055189857909981 
-0.02685616150085773 
0.006168721888376473 
-0.2041321401886944 
-0.01793357148429951 
0.03086594616380282 
0.04264362009207500 
-0.2627332926784199 
-0.003259456481029008 
0.0003040819558407700 
0.03407498374322160 
-0.009919965170556903 
0.003316899853781874 
-0.01709408120938569 
-0.1514339533849352 
-0.0003167491923857602 
-0.6698899953682017 
-0.3549425563475103 
0.1939140357414814 
-0.07907914474205134 
-0.1369978960846592 
-0.05796047360789811 
0.01100368413977146 
0.2892601285853169 
-0.03785671033647621 
-0.1858242760316142 
0.3792028122001558 
-0.6584240855121875 
0.001581832232095322 
0.01637226479195736 
-0.4819606668790963 
-0.09221000814326130 
-0.01896532776357638 
0.2951455340180814 
-0.002151915120571580 
-0.1053753858352050 
-0.0002999629715891788 
0.003798989356214634 
-0.2086011835561033 
0.0008644948673103741 
-0.1519281476881867 
-0.03008830879172453 
-0.01712933885829646 
-0.01403684580907788 
-0.1689750095440806 
0.6533804705699043 
-0.03810272423135790 
-0.1684601538680849 
0.003833723909689053 
-0.7789227377962232 
-0.7148257462992194 
-0.05745919874355607 
0.09076266556437862 
-0.4013222902792011 
-0.1387970971101104 
-0.1203667917390500 
-0.04003259783201666 
-0.001783793589059125 
-0.1087226144433087 
-0.1902086938054438 
-0.1204924351569599 
-0.2105967540226782 
-0.03404061067579371 
-0.06543304488613735 
-0.01347456101495870 
-0.005530108574818003 
-0.1105556423747688 
-0.2725400770425712 
-0.007867296786123575 
-0.2137624869493530 
0.01219223061041577 
0.009741188840726708 
-0.05998078046685082 
-0.2537918175443374 
-0.001099535443956527 
0.2301350169061774 
-0.1792693671210691 
0.5875367396617864 
-0.09113154981641057 
0.01098408726472495 
0.5186652557680671 
0.2219355211632223 
-0.03859571642343201 
-0.5498140382364385 
0.003642340108325287 
-0.1767332842205661 
-0.3129711994659036 
0.005145022381356887 
-0.08036076480769460 
-0.3173802031633169 
0.1940285241409304 
0.007203492366048054 
0.002709953647097922 
-0.01041536424090446 
0.002934969336310988 
0.3769716097258391 
-0.03143071046216767 
-0.03966050467100014 
-0.1831700380434381 
-0.4725479306832559 
-0.2775769639817396 
-0.003155964844627485 
-0.09990522364136094 
-0.9398965253775583 
-0.1609474559581058 
0.01460953929662865 
-0.008883098755653830 
-0.09986456522689274 
0.004758765280445891 
0.003866065159518650 
-0.003944876396143812 
-0.7812251382326821 
0.06583742956977598 
-0.5517915709648669 
0.003459546930689133 
0.06406968168202280 
-0.2859289398467132 
-9.209619091035551e-05 
-0.1199674244339641 
0.01554448170610668 
-0.02915955246839197 
-0.01557401730428111 
0.4917170962826164 
0.02910074848015830 
0.8473606415511186 
-0.3942431151495501 
-0.3648707083021762 
-0.04711761398813207 
-0.2168962827619682 
-0.04663595284454515 
-0.02708978367411891 
0.007476919275898724 
0.005923313042128765 
-0.1956363397149121 
-0.1019747653687539 
0.3995595452203787 
0.05035231564246994 
0.6136021314847944 
-0.1548266659276516 
-0.04860421348526205 
-0.2657779882958726 
-0.03234403198938123 
-0.005772285928713605 
-0.1176654482607642 
-0.08756731519409862 
0.4045399277670781 
0.003492432230291489 
-0.02911077147959616 
-0.2746463363534026 
0.01080907376252623 
-0.2204552101072694 
-0.03622441497353647 
-0.01104142127396541 
-0.06192738090167443 
-0.03823474566251135 
-0.1368178482462850 
-0.001677431799671419 
0.01486656236209389 
0.02384794861895927 
-0.04051133990613467 
0.004631649438846995 
0.01190640253330903 
0.2822801451862332 
0.002499739164402271 
-0.1238795573476653 
-0.07604773306939805 
-0.1662953815959923 
0.4208893027724709 
-0.2456004154851155 
-0.03447210982509978 
-0.1036722407324639 
-0.1529983803120969 
-0.1720082994344711 
0.06406968168202280 
-0.08891068373751220 
-0.1226730123273878 
0.003425080744364491 
-0.1426065399540842 
-0.009669300213375340 
0.05822818829645320 
-0.3428621952322642 
0.02202715433666691 
-0.1768270973268071 
-0.1070009244735687 
0.2188862803615025 
-0.3744377666341927 
-0.2515901046937293 
-0.3763227178500190 
-0.01822257638019241 
-0.02739324897624431 
-0.03389237625523477 
-0.1215157016145857 
0.1227063358768263 
-0.08594650971676761 
-0.05401017055469559 
-0.03123805537378534 
0.9547667465612065 
-0.1975704319461663 
0.02566062849119575 
-0.009299660533774571 
-0.08617199674821660 
-0.1759384888753196 
-0.04537641743836287 
0.004299202277276680 
-0.04192166902148947 
-0.1519992328045528 
0.2117385323424131 
-0.2783586934787787 
-0.4559911516463479 
-0.2420429281145844 
0.1686386312941710 
0.003077457759969420 
0.1312506920221989 
0.002327227036470087 
0.007587124893852951 
0.01151802944601936 
-0.008167581604582001 
-0.03938771829458553 
-0.01578339409315110 
-0.1486154586472756 
-0.08739275977294615 
0.06710994234386757 
-0.05166641489248862 
-0.02597411512481336 
0.005588131622810018 
-0.1164545430971759 
-0.08923902114112343 
-0.1774527035541458 
0.3656997522768452 
0.2667851369162462 
0.04853774426133221 
-0.07594234186377977 
0.007660012732804348 
0.003492432230291489 
-0.03521928545417449 
0.01799621567082214 
-0.06339489008033039 
0.03223193368830991 
-0.1126345273751442 
-0.2090390100866187 
-0.1799578037105685 
-0.2348085454232856 
0.006535049706915787 
0.002408913916193003 
-0.002068429924829043 
0.1696044990426643 
0.01856848793350250 
-0.009045800893536621 
-0.5967276899825752 
0.3747135866607289 
-0.2401311701410294 
-0.0001647204312743959 
0.001242495177644366 
-0.1644109410926715 
0.001220135690567917 
-0.1532735124613621 
-0.07935534809128424 
-0.02280357739021376 
0.1907859315082462 
-0.4520330302417615 
-0.3877940676848809 
-0.08121877518933147 
-0.2754001913740082 
-0.2416771516519831 
0.07533711273245800 
-0.004602758025637273 
-0.005029992794636779 
-0.1486154586472756 
0.005986691093540383 
0.3964534714885954 
0.005138478016246961 
-0.01184194757107933 
-0.1571535419187842 
0.008333285289058964 
-0.2474867513090298 
-0.1514639375610461 
-0.2309254865384595 
0.0001663034746152677 
-0.4523343406856583 
-0.02651024738152231 
-0.02345922630879974 
-0.1996673345831674 
-0.5551087048845678 
0.06631365886497860 
-0.3299461021103251 
-0.2195073260202668 
-0.06548555038749451 
-0.002068429924829043 
-0.002146939954619638 
0.4635960778175367 
0.004764712777613815 
-0.1484569149237479 
-0.04148111806525972 
0.1682178072216000 
-0.007317104044942634 
-0.1485369465035007 
-0.1542001358014373 
0.1547951867297659 
-0.008972985647875610 
-0.1550601446545188 
-0.1198785651409273 
-0.02470685795175321 
0.009042815674996473 
-0.03851764928589566 
-0.03515797050683291 
-0.09547708952246056 
-0.001077961388114179 
0.2357527145119941 
-0.02921303840737839 
0.009424129801470263 
-0.3795769073983491 
0.01977052634893070 
0.02886804700706728 
0.1215150567804243 
0.006874796324690404 
-0.2942581103856728 
-1.028757866802942 
0.4821537445638329 
0.007870497075402150 
0.1789903028109686 
0.001802667438806708 
-0.01886266487875492 
0.3498246353940946 
-0.2029735336360573 
0.008060639892968461 
-0.06842463307067045 
-0.2782865115328460 
-0.1002111964248549 
0.1897671247725379 
-0.005752759576102056 
-0.1550037007820504 
-0.03316096130635588 
0.02886804700706728 
0.006858275321984578 
-0.006509735890619106 
-0.02911077147959616 
-0.2011044323192016 
0.002635107596746762 
0.006535049706915787 
-0.09134203263779077 
-0.02745506634573538 
-0.3353675604196229 
-0.01097505595810258 
-0.002342484951570632 
-0.2403324349826093 
-0.005783359378375703 
0.0009696197206264906 
-0.07371556491534226 
-0.07517135482917653 
-0.02878545987648883 
-0.001958727158940876 
-0.004166364530444349 
-0.2069077830280299 
0.05343794922454372 
0.002824326538401042 
-0.4993838347868939 
0.003482635383980302 
-0.1671739431454502 
-0.01140285843708049 
0.006597213417394176 
0.09660751096686519 
0.005572882934681774 
-0.06586167200534558 
-0.6805599361867690 
0.04859975837499060 
-0.001323113071094734 
0.2059390006223644 
-0.04305959327665728 
-0.3175752207519200 
-0.1008582735926531 
-0.01016862643455967 
0.2671245053570683 
0.007731191301087171 
-0.02806149052975014 
0.008266057028948514 
-0.04354561508486086 
-0.2595672702663454 
-0.1157260984194244 
-0.01817746222033448 
-0.001822094551390719 
-0.002543127784425216 
-0.6901469750395502 
-0.001073961672271459 
-0.003441621780018157 
-0.03819684622110605 
0.4600451342375929 
-0.002397452846028004 
0.3238559863001919 
0.01088449414739679 
-0.1456700093664562 
-0.04063277294910467 
-0.2736269019036645 
-0.04225096655682332 
-0.1445230936937364 
-0.007888947721268118 
-0.04720848122956049 
0.3351302855799253 
-0.05465274980002657 
-0.5327477649640220 
0.2296522434401929 
0.3658529207618187 
-0.1550873519712178 
0.3517545931150040 
-0.009598221048157460 
-0.009246270642720971 
0.004931136650218298 
-0.01322240057316208 
-0.04632417780883880 
-0.5455156701913318 
-0.04974506210396661 
-0.1090409557001508 
-0.02383171816879522 
0.3039689967815360 
-0.01476235168724872 
-0.1460079483271445 
-0.1169824715755138 
0.009106508131206469 
-0.2474763919327326 
-0.2272483428066756 
-0.1430801585117172 
0.1440606430992235 
0.5264924032905093 
-0.4326379339743759 
-0.2165490249188088 
0.4491760654873785 
-0.001733786016210280 
-0.04809939536592891 
1.322179564700621 
0.007867671703897624 
-0.02024798283661506 
0.008456061762285721 
0.003077457759969420 
-0.3260938442411282 
0.007665905178940956 
0.003704939219472309 
-0.03329636873030618 
-0.01060775111421269 
-0.1058125802159828 
0.05272014080834503 
-0.2063763175580337 
-0.5905620876566933 
0.008107187056027433 
0.001200876352124237 
-0.02001062834423984 
0.007874570039100977 
-0.001527575699571231 
-0.002917349968677243 
0.005623677237941178 
-0.3044731599478884 
-0.1921796828785145 
-0.3900113431886213 
-0.1421998578394211 
-0.3472404455233691 
-0.2092548388571458 
-0.004675789384451486 
-0.1671636507751125 
-0.04828809329241496 
-0.3389398235404956 
0.003088463515916053 
-0.01960018978199278 
-0.2542312447830653 
0.01319479171621981 
-0.2014701024830647 
0.01377195656742515 
0.5008089494254458 
-0.02365288300381633 
-0.05364991459604879 
-0.2862679568279397 
-0.004347901828769512 
-0.1741598086776988 
-0.1890915707839617 
-0.1974485676309584 
-3.933963459633628e-05 
-0.3244246264004176 
-0.007882011245683947 
0.08104016342533603 
-0.02241774579509232 
0.08601163825958096 
0.04918610805023113 
0.003370603660017640 
-0.05453142286931940 
0.005589570239725065 
-0.008765386164425631 
0.005044793717708464 
-0.05268166120462804 
-0.1668998290769701 
-0.0008326963731310563 
-0.1143617124014246 
-0.04936595191702919 
-0.09413315719335738 
-0.2247708373687042 
-0.1642291131145882 
0.002338050612919286 
-0.1864997294791276 
-0.1362204303820435 
-0.04568094419903451 
0.01107248438578059 
0.2185750514337961 
-0.07521208188348796 
-0.3516630222975665 
-0.1831913169288188 
0.005426840705982833 
0.01486858841702026 
-0.001731327203962674 
0.04853774426133221 
-0.04889228188959535 
-0.09984299052397114 
0.01931529709848725 
-0.04819231919974529 
0.9565767452385817 
0.009142753452917974 
0.1386019986385648 
-0.1793741873861099 
0.05980509577301497 
-0.2080484778123143 
-0.02055888366971278 
-0.05487064204701074 
-0.02217584249426739 
0.3008670235179878 
0.005567366179193043 
0.2912461186862825 
-0.0005449843345813952 
0.03688581673962822 
-0.005108971851840437 
0.005242154657427393 
-0.3032896623229077 
0.2785216646332615 
0.5876391519895856 
0.2451255541255103 
0.007350017401859752 
-0.05902614951953737 
0.007676456072189621 
0.01066164331792826 
-0.002281295511781599 
0.01410302018720694 
-0.1963895209505231 
-0.3871371642505407 
-0.02891762965342500 
-0.1244118473986812 
-0.01538279798888092 
0.002020612147275521 
0.009671362729042489 
-0.002161282903953616 
-0.002192021320970040 
-0.003121641024033147 
0.01530148922205676 
-0.004695557652901208 
0.01310433658697174 
-0.2737561630089357 
-0.01140285843708049 
-0.1445642403788516 
0.0002628280621166893 
-0.1992079898579667 
-0.05512263650089257 
-0.3554425646614984 
0.06088438904699512 
-0.06700804176914991 
0.2800803699893918 
-0.007418495483104783 
-0.04069940353839061 
0.006394798197971994 
-0.01713757826090536 
0.01662005815029830 
-0.06863745688855014 
-0.2827104431456878 
-0.1040354857865731 
0.0006762771813036863 
-0.2552708051043077 
-0.04182293083483865 
0.008994673715150073 
0.02146995810615709 
-0.03624535533663675 
-0.1130466211413308 
-0.003874978961490883 
0.02194579415166391 
-0.2263938024924004 
-0.3978601017868906 
0.04198661711252505 
0.05363727901438719 
0.01249732639281037 
-0.3066086670427584 
0.06862144621608744 
-0.5325998204326887 
-0.1264550276963117 
0.2102730161395595 
0.002574374287768540 
-0.4867580961837948 
-0.07275919981532368 
-0.005999506631162731 
0.002655111776641981 
-0.001591470654275479 
0.008038933768022883 
-0.04235577552742464 
-7.465064906868454e-05 
-0.006790645530392773 
-0.002055595804850306 
-0.06557375849101126 
-0.06956563971315640 
0.006232255490119666 
0.006252200891499618 
-0.05449434205002737 
0.008004755466655857 
-0.0005086990497024779 
0.007741871146345270 
-0.003567863979221059 
0.009562754625124278 
-0.1703714659007466 
0.5236034498554878 
-0.1356548775345034 
-0.03216804905730583 
0.09424961095131810 
-0.1384671525452601 
0.007533855303135800 
0.01250243328041491 
-0.3612380913877037 
0.03667183107497758 
-0.004141671672406259 
-0.003323785254750702 
-0.02194440776368214 
-0.01534279974325658 
-0.01153512871489673 
0.003052651705661325 
0.4849331445016665 
-0.07954467786475862 
-0.3312938962630819 
-0.8328330750847843 
0.007482033177452725 
-0.007620649380986122 
0.08540849450590565 
0.001537430927063805 
-0.4055725209568883 
0.02402215641817579 
0.2682897334425809 
0.0009678681347660150 
-0.1723706683590167 
-0.6218045515189997 
0.003814839108521123 
-0.01397286792436610 
0.006891637548201733 
0.004934562605649542 
-0.02897557929677834 
0.03100048606834005 
-0.002192021320970040 
-0.5317239825873626 
-0.02674470998857542 
0.01039377953698491 
0.7462228338197228 
0.2690605303734161 
-0.0004913064085939648 
-0.2675358273976947 
-0.002281823478604055 
0.001769724185405715 
0.03208426015841166 
-0.5497454451864963 
-0.02119628939162174 
-0.04886620057592557 
0.09630627093351718 
0.002371784651469604 
-0.1106874271319058 
-0.09941469864314686 
0.005409950759522777 
-0.005671732477730567 
0.04853774426133221 
-0.02892663181290113 
-0.04069940353839061 
-0.02804469403148220 
0.006064107836466971 
-0.5771119946319520 
-0.7152756461145806 
0.003528131680717341 
-0.1366449665186591 
-0.01129129930261210 
0.1081401004900331 
-0.1349837580279612 
-0.2257891409782399 
-0.08724748751991224 
-0.002068429924829043 
0.005254621320593450 
0.03602044082366220 
0.03844576394479765 
-0.01146749389888371 
-0.02139030897110823 
0.1471577079830962 
-0.07581691397209046 
0.6948310035028332 
-0.005909712929562419 
-0.02415382619252325 
-0.1672657412335965 
-0.006526197021820078 
-0.1453402647375934 
0.02627801120018908 
-0.09973732495639150 
0.3376387853459038 
-0.002364411115396690 
0.003307574729935153 
-0.3855087149404794 
0.004303903398534481 
-0.04195279652919465 
-0.2389629405589087 
0.02382684403475954 
-0.1967138157381425 
0.007738570081249859 
0.01883577422124755 
-0.1247682732521568 
0.003621469380048476 
-0.6391134220165141 
0.01246557454415736 
0.004449771691589577 
-0.03482261011979343 
-0.008467230388928479 
-0.1928646111935619 
0.02491566199881849 
-0.02437150541120484 
0.005115006705273471 
-0.01686464811038245 
0.2693581560438914 
-0.07793474290050179 
-0.08577376940307377 
-0.1728749049005534 
0.006289980693707413 
0.009220154919324782 
0.1329900192210458 
-0.2610574137544999 
-0.01417293358549911 
0.004285419624135348 
-0.08209393664875068 
-0.06701166611430025 
-0.04562265448361955 
0.02696526916026409 
-0.5884310804828281 
-0.2178652345739081 
0.02660355734060248 
-0.009145353618614079 
0.006803906765557427 
-0.05473721121319854 
-0.09197451514686816 
-0.2684167072519401 
0.08804228919444189 
0.2394358577595600 
-0.02875139949663789 
-0.07721241294913442 
-0.1847890569985773 
0.005383102103413954 
-0.06710340906540460 
-0.09134434647507300 
0.3213219956541297 
0.4660321361075500 
0.001553818084312097 
0.01424721183008077 
-0.1348238459355259 
0.1788942607529872 
-0.002745297098625380 
0.02485580682025407 
-0.01695182978337644 
0.004876333573606279 
-0.04695239757640599 
-0.006205481341760723 
-0.1099920345052458 
-0.5248069256627875 
-0.007044598048227301 
-0.2676642013499166 
-0.2192205987905883 
-0.2668735502483263 
-0.3010634195350612 
-0.1550856507956700 
0.03372258578024184 
0.003316899853781874 
-0.06390562969874458 
-0.001046642597785618 
-0.09371162346126719 
0.1397711846070524 
-0.003883277135504345 
-0.2823898225629050 
0.004301481571010261 
0.001619199921607379 
-0.1675979279617830 
-0.01807265381401702 
-0.008258950852382967 
-0.02833652927044121 
0.008333285289058964 
0.1854567682512722 
0.01715034907973237 
0.2715417353411669 
-0.2698736955267793 
-0.002430276385202442 
-0.04930574232690430 
-0.1513025392544748 
-0.001347126608861833 
0.1074596889401382 
0.3730437751521433 
-0.06822874381221872 
-0.01049212921134666 
-0.02636477670349888 
-0.004848835006340147 
-0.008287602327561762 
-0.002850417929360195 
-0.2581096614666588 
-0.02470685795175321 
-0.01838128808874867 
-0.002364411115396690 
-0.002073963614912831 
-0.01731027182807405 
-0.1796423758081852 
-0.005010007466923095 
-0.05740612421953538 
0.0002761784311429365 
0.01323914700849796 
-0.1683009984872759 
-0.1428999397728993 
-0.2227140594415762 
-0.05242804071744224 
-0.1077404972869843 
-0.04684807151392038 
0.008322779359695755 
0.01001232286459117 
-0.08806541018497797 
0.1859129017276089 
0.04545120465117818 
-0.009325584246244441 
-0.2531914247578168 
-0.1908249192966589 
-0.05817685861429264 
0.01214356092025616 
0.002257767654809171 
0.1601562783112742 
-0.2171787785395075 
0.004164228871907930 
-0.004394329727170402 
0.01313655832983588 
0.01021171715292962 
0.1832010760237985 
0.6223913589233696 
-0.2600366080335032 
-0.1549405630301445 
-0.01111056602752101 
0.4487740372718015 
-0.01517511972412195 
-0.3669901594407566 
0.5766076718768860 
-0.3303889620003157 
-0.002947563225188383 
-0.2209657243040653 
-0.03146453134807345 
-0.002005248684735630 
0.1758151607915198 
-0.03839267963041826 
-0.02286021409329853 
-0.07328944595678849 
-0.01714186984588170 
-0.3805755312283852 
-0.1419125835178396 
-0.01346540753689668 
-0.09520079809503922 
0.1005383770095308 
-0.4043424651534180 
-0.2041321401886944 
0.1749679800854280 
0.2310563709187489 
0.005491931749352402 
-0.006539541760186024 
0.5591542701545673 
-0.05224175000238106 
-0.06740265649534163 
-0.01097505595810258 
0.004490756089310481 
0.008568739729148803 
-0.3049290751259457 
-0.05314873298930530 
0.1277834712649906 
-0.2180438265528248 
0.0004859681541853971 
-0.003132188872840226 
-0.2402233633065578 
-0.3358522333376088 
-0.1413154498906075 
-0.01366952694012475 
-0.1871037540028191 
-0.05209443768452067 
-0.007620649380986122 
-0.05423338976176124 
-0.2356931394788142 
0.6227556299120641 
-0.1946232450207374 
0.03585085818309444 
0.006633803232195239 
-0.3604942698854747 
-0.1784970622302653 
-0.1793741873861099 
0.003665699477146221 
-0.007950251935653880 
-0.2334208882399608 
0.009170670034668807 
0.005940158454351866 
-0.01926374176492522 
-0.02041015248839342 
-0.009919965170556903 
-0.3008016161808571 
0.01298391612858702 
-0.06414037881080989 
-0.2283633947312722 
-0.3837177745344221 
-0.1908316535107621 
-0.004055966277453495 
-0.1297218150075171 
0.05432051578117041 
0.01219223061041577 
-0.1133012445070071 
-0.3527650596565402 
-0.06299276137657127 
-0.3433144118666757 
-0.2158880822494537 
-0.1560762631631542 
-0.01375590023281442 
-0.1075439961335701 
0.006633803232195239 
-0.07357084623783760 
-0.01910862227177213 
0.01100332572208115 
-0.2253239741594247 
-0.007888947721268118 
-0.06747343673749634 
0.0006061924808673737 
-0.1416847932839334 
0.01355933086373351 
-0.1049236589367462 
0.01012202517819482 
0.03055604171811677 
-0.001380995574043673 
-0.03676736914985829 
-0.03662047561003854 
-0.02336380817244718 
0.5567667576350006 
0.1462169587925642 
-0.04683260038862695 
-0.4218003469166366 
-0.1641319592510213 
0.003893949484136408 
-0.01119854406819808 
-0.04395827449558978 
-0.0002883728499086383 
-0.1036456866808750 
0.001792709981314846 
-0.04011761004337015 
0.1660268899337755 
0.09192717709150433 
0.02459714166148810 
-0.2429634496938177 
0.007917147465366288 
-0.01287086161369207 
0.01219223061041577 
-0.1391524100997488 
-0.08640196092702619 
-0.1993507479474784 
-0.07990747026557683 
-0.03880814190718575 
-0.02127533335018539 
0.5331560709365399 
0.03414726480987761 
-0.5411015165741504 
-0.009290295707664913 
0.02890940221808244 
-0.0001040571046964985 
-0.02047653536200190 
-0.3229315766460765 
0.02693789241832628 
-0.06465043950468008 
0.002666146549859447 
-0.07436648299721499 
-0.03574166508187317 
0.003321643395266413 
-0.04860421348526205 
0.2878967817654820 
0.4972891881315656 
-0.1742500128300112 
-0.05957957607544405 
-0.04369852415735465 
-0.0002463115299100329 
-0.1203815542945413 
-0.007317104044942634 
0.1527481873019066 
-0.06692662075234793 
0.08191881175836975 
-0.002401007408733980 
-0.04548263697811510 
0.01918972541489645 
0.002458546728614950 
-0.3192472183107434 
-0.1127539497435224 
-0.06182735928897723 
0.01856848793350250 
-0.1930219268260928 
-0.006530314858791449 
-0.04575517198033768 
0.1660268899337755 
0.001616340280502549 
0.03403661486418802 
-0.1060709481854624 
0.001629385487395787 
-0.1349187387981544 
-0.03894578066888949 
-0.1377136957848085 
0.6016172373697539 
-0.02555881112703859 
0.003890125462211039 
0.1802466355764934 
0.07667426661054458 
-0.1274889403256789 
0.01014664259739107 
0.02564533290009714 
-0.07912816362941939 
0.004170303111152096 
-0.006134019234324281 
0.1638099442770064 
-0.01250064936600641 
0.2652887170695078 
0.001859469222614726 
-0.4105128861783726 
0.3071372814227840 
-0.03418546768433650 
0.6049477983761345 
0.7859062334360593 
-0.09288739210430966 
-0.4682564111954540 
0.01429889531844493 
-0.02815443091463933 
-0.007469524993475599 
0.001333089386619604 
0.06456706277874455 
-0.04617070384276946 
-0.2623303573864469 
0.2718736323647149 
-0.09084921323480451 
-0.04910490989091620 
0.1282836499865354 
-0.05175428618151465 
0.0002378028502973978 
0.0003087615908101727 
-0.1566296374576124 
-0.02352128151095170 
-0.07226470352501488 
-0.5040062544350381 
0.005361429533420942 
0.009660022583929914 
-0.02803903115064309 
-0.007317104044942634 
0.002423886058936718 
-0.2850855015520943 
-0.02337452725190574 
0.003128526687911021 
-0.3669972259734055 
-0.04783510014178721 
0.03505204870553303 
-0.02342089578277096 
0.008636768991528068 
0.01100332572208115 
-0.03865322082065423 
-0.04702564411412741 
-0.006978156580332880 
-0.02170312083801318 
-0.2765056872202906 
-0.3180722147079804 
-0.1120180026078823 
-0.003811583207436907 
-0.1328649671096033 
-0.2844285495482462 
-0.005486696271116432 
0.1251345101037895 
-0.2678303532867749 
-0.2496221280798571 
0.005153204040190203 
0.1765893127151509 
-0.3612314318137773 
0.1997298308105155 
0.002482087055691015 
0.07446635088223699 
-0.2173202477497366 
0.004733215557518663 
0.05680060653034996 
0.002665016954177801 
-0.3873776210909952 
0.001850618529065442 
-0.1555598612537019 
-0.03080912683944745 
-0.08297835954811200 
-0.06644495932890455 
0.001828177117558123 
0.005400916865286371 
0.1012727202748955 
-0.04191713271019146 
-0.3248239194361406 
-0.04451896313391729 
-0.01957070382612667 
-0.09296429497962103 
-0.002959350252073911 
-0.003554689048094739 
-0.2182824974843086 
-0.2997539132312677 
-0.2773497583356259 
0.01203898692503674 
0.02030179923432903 
0.05656917633715548 
0.008575978317936822 
-0.0009233134080941334 
0.01351655443470205 
-0.02739580633788851 
0.01273729775203755 
-0.05697102365047214 
-0.004303636688507782 
-0.02167091747979982 
0.001832465859475437 
0.5477011115468757 
-0.01177539006062792 
-0.03020980373941639 
0.007640148463217854 
-0.4786652171002009 
0.3744233777508050 
-0.1591821079007850 
-0.1739040368954689 
-0.1440011500738995 
0.002533608218620681 
0.1243146171837418 
0.02459714166148810 
-0.1531457609743727 
0.01215870085475609 
-0.1156249229435885 
-0.1870338674604682 
-0.1852329875524347 
0.1455635925925509 
-0.001927843167368245 
-0.1506275556490271 
0.008583340314117404 
-0.008223108672958803 
0.03724894227620287 
-0.4335344775223389 
-0.1426838267796942 
-0.04021831724165137 
-0.07990853155718190 
0.005444602115731947 
-0.01506148425658147 
-0.2178395169469553 
-0.1619957122513563 
-0.009851217540738328 
-0.06661784221933179 
-0.007962462207189520 
-0.1535529437007399 
-0.03622924863162490 
0.01270055749323294 
0.002947599538788641 
-0.03833553872107932 
-0.2320503472683478 
0.006658166658048954 
-0.2532406121547787 
-0.0007783901489712445 
-0.06834319918993978 
-0.1432025053011014 
-0.6069049780231675 
-0.04726856226190992 
-0.1964097001318091 
0.1282836499865354 
-0.02656809211053766 
-0.02651024738152231 
-0.01785741989958078 
0.006371941857840228 
-0.1363493636746136 
-0.09763938735411712 
-0.03654634129738225 
-0.01219612623841938 
-0.2238850838705334 
0.003307230415309324 
0.01660329309633298 
0.04030348591338773 
0.008740062420031678 
0.0009696197206264906 
0.004071868103160185 
0.01660329309633298 
-0.1267218683712762 
-0.02105692185457089 
-0.2327401944206646 
-0.07075991357062604 
-0.2956982269478508 
-0.2049449477481329 
-0.009126850231565837 
-0.01667756237432239 
-0.05934844145212965 
0.01368528652963587 
-0.06823614588354947 
-0.2544623692862079 
-0.1257938240874159 
-0.009943994557245876 
-0.1307819939914104 
0.01563372218987481 
0.02200335753273401 
0.2925444027329322 
-0.05472269225047002 
0.006891637548201733 
-0.01744904461418130 
0.03639717888807522 
0.2156966419555486 
-0.2583102611375883 
0.1638099442770064 
0.0005923301264705719 
0.03424564741048374 
0.0003171907305145674 
-0.05982761036164795 
0.009357816203771165 
-0.007811332594150254 
0.004827754869766920 
-0.04848019875076404 
-0.009136248198472120 
-0.1915347597028013 
0.01198427325305176 
-0.3379670097664528 
-0.5245305243752343 
0.01898650506209023 
0.01032884736498358 
-0.2592922956827954 
0.001534276334071198 
-0.004679626222020829 
0.02004359506948348 
0.006621120959001922 
-0.4502674696247782 
0.001769724185405715 
-0.03460590928734279 
0.001941508647390968 
0.1579039813489511 
-0.4086348487841732 
-0.009626090268652895 
-0.0008949319137642143 
0.005474593098079131 
-0.03780607857686339 
-0.1784683462917120 
0.006858275321984578 
0.005536971382144663 
0.003104687046392360 
0.04918610805023113 
-0.05780331049209289 
-0.07798515348841648 
0.2423186475349168 
-0.04485053066189811 
0.07063935608655934 
0.1874284999109522 
0.1191262578810564 
0.01941455767926800 
0.1018668384830669 
-0.4568911374276757 
0.07755560936302494 
0.05455457732026214 
0.9596928058545021 
-0.1723987089938200 
-0.3754650630042121 
0.004553557215685226 
0.06247834152385652 
-0.04781646182825151 
-0.03076561891642966 
0.6506984001985610 
-0.008223108672958803 
-0.1954954210095202 
0.003598607761733525 
-0.3425505147721331 
-0.01804647441450826 
-0.009410072706215977 
-0.02976654841681509 
0.08342831511890828 
-0.3476066105635930 
0.01221709825479862 
-0.07772110231233414 
-0.02224287699200030 
0.01157278922101988 
-0.1051955100242259 
0.0009933686862042012 
-0.02059324106590840 
0.007870497075402150 
0.004305596950419322 
0.001263440262636713 
-0.2139034920717030 
0.02030179923432903 
-0.7349378211758688 
0.006212542328553467 
0.001928230722984083 
0.01098408726472495 
-0.2255857808695671 
-0.004195632225287673 
-0.1386010526398510 
-0.07046094532599753 
-0.09257389443528535 
0.09569725804678492 
-0.02003218094459575 
-0.3885659552708181 
-0.1768270973268071 
0.008002921564327730 
-0.2008928587808245 
0.01691882167463433 
0.001616340280502549 
-0.04006835493940145 
-0.2593435070941962 
-0.5095614477185660 
1.574664574305928 
-0.01778197679738722 
0.3347777118008358 
-0.01088856447615100 
-0.1849440475310140 
0.02023946813601656 
0.1193515003450741 
0.04515944395221008 
-0.03342459401206725 
-0.2474258187377058 
0.1287178092593246 
-0.009640877876636483 
0.01145902628175361 
-0.2656298202421664 
-0.001083314376115818 
-0.01123930333281631 
-0.5189291771099902 
-0.4598813470244368 
-0.1055963660133176 
-0.3348437580307936 
-0.01850517520254235 
0.6544858010179756 
0.001336641438217104 
-0.008999077783352854 
0.07376981600598916 
-0.1165933504780451 
0.004927340805894911 
0.002533608218620681 
-0.03184095889209958 
0.3964876539454035 
-0.06747498774028633 
-0.08155525987707960 
0.5273267081637327 
-0.05982761036164795 
-0.0001034649651294309 
-0.5108380018188272 
-0.009916845889221277 
0.5655015459047436 
-0.04798704646924430 
-0.2879967803836813 
0.05596028306849041 
-0.08863002409914846 
-0.1013484655430873 
-0.3386274774094454 
-0.2433571563098697 
-0.02854137719727531 
-0.003431172942638430 
0.004132497596538921 
-0.09406463172541382 
-0.07485164507553721 
0.6055869217674061 
-0.01492092288665881 
0.006328427297415482 
-0.2122411290888517 
-0.003997615911271903 
0.002957580388112277 
0.01301187832612879 
0.09647146564613329 
0.05650231045134162 
-0.06548555038749451 
-0.06873345488258930 
0.02630637961285186 
-0.03221656778487064 
0.002222752904145054 
-0.1269245473460088 
-0.04936595191702919 
-0.003752154315893042 
-0.05251637901548037 
-0.1952808002720364 
-0.02209425961690961 
0.01301492289637011 
-0.01039728964150857 
-0.1365556855930442 
-0.1662784770558258 
0.05409244906361314 
0.1039661052266987 
-0.04507333493828306 
-0.07744242096219638 
0.1386019986385648 
-0.04544966011004360 
-0.04371784449668890 
-0.007317104044942634 
-0.009293288379136046 
0.01782516462709805 
-0.01764745683953012 
0.01379403601833464 
-0.1903041579913719 
0.0007193956772058878 
-0.1759993269706101 
-0.2764600011776643 
0.2287903911672231 
0.01015030635718389 
-0.1095363603612342 
-0.2289904453155187 
0.004817032800213657 
-0.06168492645641081 
-0.5199040007463551 
-0.004064015013854771 
0.4168701634242606 
-0.1730963433239931 
0.002934969336310988 
0.2146117329882457 
-0.2160618932055589 
-0.008255340682448879 
-0.1728905553697189 
0.2343072305949031 
0.5189450695810950 
-0.002626006046646629 
-0.04204990452722295 
-0.7209595726435821 
-0.007255859126097705 
0.01351922157318472 
0.004885627955206148 
0.007827390211613373 
-0.3358384528395448 
-0.1063676647024240 
-0.08742204046150134 
0.01211274874323240 
-0.008467230388928479 
-0.01595153624896840 
-0.05379448871986782 
-0.2537918175443374 
-0.08661526576120124 
-0.2337892537171392 
-0.03953705422853814 
-0.06985340896913905 
-0.003391962279188210 
-0.3251306938166809 
0.01850043762579832 
-0.08622047095940916 
-0.08076759829924020 
-0.4104677124750083 
-0.04559890497846005 
0.0008317574509216293 
-0.1610039311554879 
0.001955099553439668 
-0.009453063493961005 
0.002045963721268414 
-0.003728989359270502 
-0.05146809292922934 
-0.09365057634049083 
-0.04244701086835936 
-0.1083151759457210 
-0.1055099160795559 
-0.1212813062540388 
-0.01196188435094361 
0.3524733829886939 
0.006857287209563578 
0.1108157199948030 
-0.02055189857909981 
-0.005812701524331147 
0.08537700626037560 
-0.6944277595565208 
0.003804069607997334 
-0.2011677969160967 
0.001946833125269585 
0.006678551605360539 
0.003236156306423811 
0.07340590463165839 
-0.06543304488613735 
-0.04158903154438928 
-0.1280477822714890 
-0.1747010367992462 
-0.08517585102662450 
-0.1386120824635696 
0.01714150034501603 
-0.03903479345397446 
0.004621726418300472 
-0.1534394503351133 
-0.2281595227012525 
-0.02542032459198641 
0.8994675419504747 
0.2359840254452764 
0.009292787770383015 
-0.3645900150139679 
-0.1758571901363476 
0.06864870002979762 
-0.04744115362591388 
0.01858391158327051 
-0.07591180789585934 
-0.08356491501347951 
0.004203556587429204 
-0.002745297098625380 
-0.1383548629110089 
-0.09612135767802105 
0.03973013662775605 
-0.1130543232032199 
-0.01940344288184181 
0.8211663273585413 
-0.1021036386227061 
0.006497454768046590 
0.004882266385363683 
-0.03460590928734279 
0.003943539881696965 
0.1251757251323475 
0.4806011045517236 
-0.1305743806610870 
0.006086092466708505 
0.01195419553088049 
0.08698663866257934 
-0.1691114724973660 
0.01377119733857745 
-0.2002570258212982 
0.4235992206318330 
-0.3691749716276540 
-0.003763499291355507 
-0.04902567154218595 
0.2733885349110366 
-0.04365322142467026 
0.001813382018783496 
-0.02921559550659905 
-0.5375608120272842 
0.0001663034746152677 
-0.008702708264643852 
-0.1030495496870477 
-0.02385001950640197 
0.2101630985443671 
-0.1168867799515077 
-0.4095886010667427 
-0.007178097563682794 
-0.01196590136774714 
-0.01760554063344760 
-0.08736012200052560 
-0.3020953103653400 
-0.1743997013852212 
-0.004195632225287673 
-0.1462681226798873 
0.3404600728681054 
-0.09688968062151015 
-0.2127588442879961 
-0.1207841212832656 
-0.08605187048185610 
-0.05452615980523840 
-0.1083151759457210 
0.4567000246723245 
0.006633803232195239 
-0.007962462207189520 
-0.01466028202809945 
-0.005898112770291089 
-0.1257228305720765 
-0.0003890672068927163 
0.2938533064508708 
0.004026966735217328 
0.01346082874398319 
0.07940174792331528 
-0.02695442096974562 
0.005133492847281884 
-0.02685616150085773 
-0.2474763919327326 
-0.1799578037105685 
0.7375248815993171 
-0.01196590136774714 
0.002706624709974149 
-0.003266420208799586 
-0.06020003794181014 
-0.05734091092273971 
-0.0004732799494557331 
0.02470178808254592 
-0.001441253052134625 
-0.004088775199302889 
-0.2003544597013354 
0.005657337797709626 
-0.09883388204793397 
0.01665045059594597 
0.5586933864958628 
-0.1802610501497273 
-0.5629314480733455 
-0.04671150307798375 
-0.04205580833518467 
-0.003568606846989262 
-0.02280357739021376 
0.05681278973843273 
-0.02300349228236148 
-0.04844339849325779 
0.01681828124733826 
-0.01464102898052056 
-0.07537554176653355 
-0.02840161584642257 
-0.008377894888815081 
-0.03025371448893392 
0.05911291448466344 
-0.1978824516587482 
-0.2665424954127554 
-0.5405969130671324 
0.004257499953581413 
-0.07357084623783760 
-0.1608045989731446 
-0.5304448401228293 
-0.2983060170866069 
-0.3181240822837358 
0.7506365763261665 
-0.002873035109702047 
-0.2578037442699053 
-0.3198987037425173 
0.001616062235469357 
-0.02187292311827643 
-0.01817746222033448 
-0.02541757810838280 
-0.1768557700487995 
-0.04500601811365970 
0.006978979248792924 
-0.1769293547674003 
-0.7572193894127415 
0.0002382290771003603 
-0.09309768416239925 
0.007988312478758435 
0.01319438628227289 
-0.2178390460473402 
-0.1541796459528154 
0.002547007688950650 
0.08789035002335760 
-0.007317104044942634 
-0.01144466608650287 
-0.02986002883628120 
-0.01917725606882991 
0.003758988310743779 
-0.03522738191744516 
-0.1026733369553662 
0.007513987504989241 
-0.008989396895115836 
-0.2017104398223667 
-0.005949162195435872 
-0.06302564600699428 
-0.2592693904553107 
-0.3509872767476222 
-0.2250705442119545 
0.1154768591051254 
-0.04950437710134928 
-0.1605531743641143 
-0.04539446308075797 
-0.1702114036630031 
0.1112047537013634 
0.007244070169127318 
0.01278218713797237 
-0.007126276767270079 
-0.1284099249761746 
-0.01972295774132793 
-0.1479209095764763 
0.01170028048268434 
-0.2492873982964936 
0.02201261326989919 
0.04176048530891493 
-0.3322622264941392 
-0.006326946789980549 
0.02030179923432903 
-0.01231772136120937 
0.02011284528114494 
0.0009824906485472280 
-0.2101719955982109 
0.1174494658730949 
-0.2173202477497366 
-0.002959274004432785 
0.1006040088916394 
0.001431604604175872 
0.7379722708730623 
0.004859753038455985 
-0.2049249154041335 
-0.02804469403148220 
-0.2281373980648430 
-0.4396858540789745 
-0.4780780235204131 
-0.5037594922898478 
-0.3366755885107879 
0.006673635472230098 
0.002683792734278946 
-0.003014742876482962 
-0.1868600383669518 
-0.01074602940867159 
0.3117737374051868 
-0.001973598893054055 
-0.2955186158763895 
-0.2236796192536004 
-0.03369319884343090 
0.01665045059594597 
-0.1497270925314481 
0.001779501022075459 
0.4652962927710941 
0.4364744459560406 
-0.08095871337768815 
0.009155473273215878 
-0.06828429374229367 
0.2651690436630219 
-0.8045244323908883 
0.3958952107898846 
-0.1187546053709103 
0.01107248438578059 
-0.2030142356330343 
-0.05553575105434164 
-0.07303896289488003 
0.006790878035857588 
-0.1026733369553662 
0.007093391749303387 
0.0009824906485472280 
-1.025155956007218 
0.03604109729604206 
-0.01517511972412195 
-0.1959727840549131 
-0.1550037007820504 
-0.1080555961382980 
0.0003040819558407700 
-0.1866762860276453 
-0.1541613852789397 
-0.2081075502878602 
-0.05004142031170304 
0.1029265290614037 
-0.04322933458104840 
-0.04903661779238839 
-0.1031334678472232 
0.01460953929662865 
-0.01860645954292445 
0.007482033177452725 
0.2249303051572710 
-0.07038436031637328 
0.02345081029461347 
0.9623125669348884 
-0.05337216271036387 
-0.05760062448091378 
-0.2368411620480175 
-0.2378537049877214 
-0.04416627323557698 
0.01893224689996048 
0.06083062223099628 
-0.09082567307689209 
-7.465064906868454e-05 
0.01384908644656401 
-0.2853554065340683 
0.001242495177644366 
-0.05129341762614384 
-0.2950548218036010 
-0.3591765087335369 
-0.1714318017080093 
0.006025977894699930 
-0.1541796459528154 
-0.3409866522378078 
0.01241111948591601 
-0.05707587564018084 
-0.0003167491923857602 
-0.4009922285625208 
0.001753399557961495 
-0.4194969730612850 
-0.1569468211774387 
-0.002148619842299817 
0.2776321369650274 
0.6108789556514742 
-0.001853660915904123 
-0.7901449564050751 
-0.02203919456265843 
0.03815068905856117 
0.002937651941635214 
-0.02169034352725345 
0.05382585131937725 
-0.05718572038598421 
-0.1890915707839617 
-0.02131414496035858 
0.2127603478261531 
-0.2474763919327326 
-0.1706978925934578 
-0.08458417003837004 
-0.1054580917625156 
-0.5770166596660053 
-0.2600366080335032 
0.4650989273537745 
-0.1151031601559260 
-0.2244055509480386 
0.01171731317318710 
-0.3795769073983491 
0.05596028306849041 
-0.06228367484819226 
0.0001663034746152677 
-0.0002527785968249466 
-0.1799023156277924 
-0.006644373438196734 
-0.06858810415554356 
-0.4696760422061612 
-0.05771557173009175 
0.007867671703897624 
-0.5736491886482625 
0.001127551807334586 
-0.02829782250861508 
-0.001781706954059339 
-0.3470323956560233 
-0.1047876672596096 
-0.2284540451869571 
0.008577662890578095 
0.01099194694515905 
-0.2138095130470635 
-0.03704204006724267 
-0.4328584112292596 
-0.2928269498140564 
0.009576988810447464 
0.0003566031720317366 
0.002367336369823616 
-0.1328742295157313 
-0.1545577160096285 
-0.006539541760186024 
-0.01525437266814953 
-0.06034685699595538 
-0.1349187387981544 
0.07774857025385146 
0.004343393574582285 
0.01379403601833464 
-0.07750856071279409 
0.3916575617799051 
0.006350858685296327 
-0.4188942037453141 
0.01662005815029830 
-0.3052672705768633 
0.03086594616380282 
-0.01601155955877087 
0.008143408525003247 
1.188793008928868 
-0.3486777713708958 
0.6088806377570113 
-0.07327761024066576 
-0.8643089809121879 
-0.1704596262105959 
-0.5655284178316089 
-0.1773790729523404 
-0.08114293884635379 
-0.01476235168724872 
-0.05188992495076315 
-0.07424001804150365 
-0.05938884185942540 
-0.04576526432076222 
0.2277491223064748 
0.05345243297996613 
0.004675208497873822 
-0.002249858347702028 
0.02195186708955710 
0.001859469222614726 
0.1282836499865354 
0.003924861825307764 
0.002602201438677823 
-0.05069068940330668 
0.4670599010814099 
-0.1191362370275993 
0.03920665931039501 
0.1725466603557035 
-0.007191455033299397 
0.01264566305207868 
-0.009916392873422546 
-0.06529471808944885 
-0.09961939877289214 
0.6659710385753849 
0.5469072619120388 
0.5145599936911687 
0.8189073192925564 
-0.3848443079915214 
-0.1767673266098823 
0.01482517155052996 
0.004316688951053736 
-0.07976609382727602 
-0.5660226763377716 
-0.1177535332320660 
0.1121092572048297 
-0.05257501307171757 
0.03414726480987761 
-0.2953308238928528 
-0.09682035081391532 
0.02656856167503811 
-0.02416664806393638 
-0.03635648119361371 
-0.04352489606171650 
-0.004510642233935778 
-0.08899953130538982 
-0.001759979288787405 
0.1256524299666449 
0.1159092658945658 
-0.03328306275564796 
-0.01785304728362322 
-0.01691934706142162 
-0.4398520513389999 
-0.2173202477497366 
-0.004068985209095955 
0.005491931749352402 
-0.004621875096779558 
-0.001493217579929557 
0.001779501022075459 
0.1159092658945658 
-0.08529792262252475 
0.01215702742316229 
0.07059348346661369 
0.004597541635033629 
-0.09754999128015734 
-0.04284784966662736 
-0.05601183662208070 
0.03038309825313609 
-0.2483254045965996 
-0.09774785889305819 
-0.1098968511683459 
-0.0006470750622580108 
0.06390254972665435 
-0.3249058865208850 
0.1739902228307113 
0.003697197887293113 
0.02563897561176312 
-0.1050396632070752 
0.003704939219472309 
-0.2166617094939778 
-0.4657184268064689 
0.2735420645869774 
-0.03915305991425888 
-0.02377865229641805 
-0.02415382619252325 
-0.05954617313245030 
-0.2268099487677653 
0.1813534855814289 
-0.01501981372771623 
-0.04541460874876702 
0.09204712544722493 
-0.003874978961490883 
0.005726881833829110 
-0.006387441496764465 
-0.1451799842894361 
-0.2459404308942752 
-0.03162883362944295 
-0.04922063034878235 
-0.07594234186377977 
0.02892112893724493 
-0.01097505595810258 
-0.04939626012834121 
1.074603544042264 
0.01081898788063059 
-0.03913059793300059 
0.7287082547493056 
-0.2474763919327326 
0.002770616024145547 
-0.01400810755822555 
-0.1412110683553381 
-0.0001629468834660924 
-0.06340392174509339 
0.06485176752971973 
-0.03427209175216661 
0.006978212588059347 
-0.2801612180028952 
0.005560752744651865 
0.01062039651111910 
-0.3265078966750745 
-0.002947563225188383 
0.07801620055559749 
0.002366054912168217 
-0.2670749137679374 
-0.001682625453168139 
0.0008174425861086107 
-0.2507557291252336 
-0.2377577160876069 
-0.02025087032410719 
0.01182856892827809 
-0.008196853535475097 
-0.2439558293833751 
-0.02352128151095170 
0.1601771923501563 
0.006152766456490230 
0.005009430035799433 
-0.1637451534478588 
0.01684720804027914 
-0.01597960770952024 
0.008048181711203268 
-0.007252730224890707 
-0.2658868224624825 
-0.09835720976536522 
-0.004463637416279090 
-0.8247665113554277 
-0.01645483674560066 
-0.01712555330548046 
0.02172834701000750 
-0.003014742876482962 
-0.1047234728802265 
0.001670466219540610 
-0.8339838117847403 
1.184323309294901 
-0.005254260891256078 
-0.08828152746335219 
-0.0001629468834660924 
-0.1359254963368893 
0.001813382018783496 
-0.07594234186377977 
-0.1955961698244002 
-0.4023971917767459 
-0.05024894872803819 
-0.1382255415963644 
-0.1579160377299499 
-0.03146453134807345 
0.07545033520530364 
-0.09457065815194900 
0.001476522656768854 
0.1024498456906340 
0.004301481571010261 
-0.03952021321770714 
0.01303807150758048 
0.001946833125269585 
-0.01746211619583537 
0.003628011228541663 
0.02143103034642172 
0.006982664925418032 
-0.1556742529385988 
0.3901603681168073 
0.03232473992167764 
-0.06419726271005521 
-0.05090223032348035 
-0.06773718308525643 
0.01219223061041577 
-0.5413143243715914 
-0.01192270221597173 
-0.01815154583223759 
-0.1680020650957678 
-0.05273152632487971 
0.03121880881545303 
-0.2637813116077522 
-0.4347709198456367 
-0.004935512893866831 
0.02865861944436886 
0.004849278924694104 
0.003081419458703295 
-0.01896532776357638 
0.0008825853613323865 
-0.02745389048400045 
-0.3637952427527864 
-0.08032510233660110 
-0.04711761398813207 
-0.1229959129622545 
-0.1395140486860291 
0.1069199531915176 
-0.06563123315299776 
0.09709923510736565 
-0.1323225075237946 
-0.09350728302423644 
-0.05697602204936095 
-0.02673205409078134 
0.08729049896803008 
-0.003378727489120309 
-0.1895934898988022 
-0.02876600258882085 
-0.007676742623399662 
0.003864220239548600 
-0.2405139724620021 
-0.1884781381025112 
0.006350858685296327 
-0.002599944046052610 
-0.06148116811215948 
-0.01195225245749104 
-0.006694602106140288 
0.01042280242029022 
-0.02345674211219696 
0.001670466219540610 
-0.1123117587459177 
-0.09989002091877043 
-0.02395987572822764 
-0.4839724559784915 
-0.02619268279737555 
0.01875657197816496 
0.005013845506668933 
0.01246557454415736 
0.1063862159422751 
-0.001930530750136931 
-0.2062226900603600 
-0.007859611377686301 
-0.09729904246157473 
0.3977091954396250 
-0.1531457609743727 
0.006168721888376473 
-0.6850637508047135 
-0.01143921721963672 
-0.02443356758033309 
-0.1872150340352485 
0.005986691093540383 
-0.1034236010471905 
-0.2182611440523802 
-0.07869210275802230 
-0.05518292160349380 
-0.003837683804909614 
-0.004510642233935778 
-0.06794820277437622 
-0.2143240730944677 
-0.1654264960713123 
-0.01362333212286803 
-0.1334746272812544 
-0.3659258692626499 
-0.004303636688507782 
-0.3578917337377850 
0.3586664911884759 
-0.04175741227960925 
-0.03969600954647902 
-0.4222868777287133 
-0.003554689048094739 
-0.01772115923534715 
0.2929448726759850 
-0.1023454374014277 
-0.05842510722950770 
-0.1740107584304684 
0.9203000999991920 
0.001941508647390968 
-0.009506055065859200 
0.06515679377383424 
0.003142330612434659 
0.5177120609225708 
-0.02732143647788488 
-0.01807265381401702 
0.08896065551361192 
-0.05138549672241223 
-0.2361662895059873 
-0.05165692799533283 
-0.1153924952079840 
-0.003220116801180322 
-0.03659434424977140 
0.02904795161492000 
-0.01856150398590464 
-0.1707983489167148 
0.7465111938659682 
-0.2976532339378198 
0.1965080575644611 
-0.05526638827613338 
-0.2812235550141731 
0.08678915539633555 
0.009412028373024375 
-0.2634888328364122 
-0.01291973752633343 
-0.1703714659007466 
0.01180114949830344 
-0.01125134899968201 
-0.1031063293018052 
-0.1033176097632947 
-0.01920970339695352 
-0.01466028202809945 
0.004137689511561753 
-0.1753804373725036 
-0.0004305417293536805 
0.2847219512219940 
-0.1645140531854246 
-0.08498687174661873 
-0.06390562969874458 
0.1562957403966852 
0.1448195402773166 
-0.1958509405193021 
0.2296509682729575 
0.006712507920075968 
0.007170547607554903 
-1.617288914212947 
-0.01260038623244372 
-0.08484380151418802 
0.003411271772009106 
-0.1169403485441427 
0.003790304559397296 
0.009587323280275215 
-0.01481105841851494 
0.008124746292924674 
0.02053887156273729 
-0.004088597657314595 
0.006673635472230098 
-0.01149034904845536 
0.01918972541489645 
-0.009970906252657685 
-0.004761185206249559 
-0.5380391077936141 
-0.002409301648286562 
-0.1021188767196463 
-0.3085729495555212 
-0.1538351910064020 
0.003740078338367956 
0.003780712139413858 
0.08405864643745656 
-0.09617199702067622 
-0.4562947869384419 
0.006688085665826038 
0.5211710807385500 
-0.05542327394738711 
-0.007756367069962571 
-0.03290119205266515 
-0.3978427712812022 
-0.0009063665510144786 
-0.1974545711586723 
-0.0003590061986282703 
0.008717043089246892 
-0.03162674163051428 
0.2051804750554372 
-0.001930883885349399 
-0.02854137719727531 
-0.002152974300657529 
-0.4908056607982675 
0.004924935085926943 
0.002947599538788641 
-0.09554990460286765 
-0.2226073775160790 
0.1893393541163925 
0.006711740540934008 
-0.1338354669382062 
-0.08494854911889019 
-0.3564962677983790 
0.3883044548237853 
0.07999995254035995 
-0.2809391343148840 
-0.3925195167080360 
-0.03010271068647830 
-0.06615003439319755 
-0.01578544498876953 
-0.8309826466631522 
0.3019926408039029 
0.01238964263663026 
-0.1155941315579975 
0.01616369886457453 
-0.1708452905120665 
-0.1919175161924894 
-0.01037110273151018 
0.2069701021797928 
0.001587579684119862 
-0.0005919610358924098 
-0.1523316082081341 
0.001859912115278066 
-0.2224770254035847 
-0.1637021107114539 
-0.02638047820992112 
0.006978979248792924 
-0.005618321131945762 
-0.06997567838669723 
0.4762955723236015 
-0.04902567154218595 
-0.007252324482558347 
0.004421717200194162 
-0.03302922053108748 
-0.1194030976261819 
0.0001663034746152677 
-0.4837105748083885 
-0.07360276143244965 
-0.2829373323085546 
-0.3010634195350612 
-0.04944785173552751 
-0.1728749049005534 
0.002499739164402271 
0.3455933190616006 
-0.003905820554719388 
-0.1628885897848736 
0.2897856326450395 
1.027885981253779 
-0.03854102937641752 
0.007220056080954180 
-0.2985547920826053 
-0.07474921878287151 
-0.006097341665132193 
0.001343540574788209 
0.01057245127836463 
0.006208092809025330 
-0.1359254963368893 
0.002504120643125514 
0.01076544468637349 
-0.01812080658324042 
-0.3642076304108470 
-0.03097680473574162 
-0.01402983853745106 
-0.02901035796098154 
-0.07989253843855527 
-0.01991106019648007 
0.4999127746085484 
-0.6269992185052913 
-0.5617816412120377 
-0.06804683634992023 
-0.06320466742408086 
0.09310512925920211 
-0.008345810376933858 
-0.1878609144738365 
0.002518872300817139 
-0.09329370612027181 
0.004305596950419322 
0.6596738031640663 
0.001936787415462511 
-0.01330399048275756 
-0.06602499348738408 
0.002663720628612499 
-0.09549461887150747 
-0.03010271068647830 
-0.02767185058022426 
0.004610374182512143 
-0.1518959137300865 
-0.1687215112555131 
-0.08893054303541500 
0.0005882452965469567 
-0.1325498510747174 
0.02459714166148810 
-0.004575052279102456 
0.009246336029330714 
-0.06904950750561156 
0.07505615849587523 
0.02226251986669305 
0.01275042946650701 
-0.02753855104831296 
0.2690283970786217 
-0.1838800958624858 
-0.01153512871489673 
0.005150286301443784 
0.007494658539970375 
0.09190032463241163 
-0.05619020711882031 
-0.03801475279748687 
-0.1231687613350747 
0.006763697335181075 
0.01614816789482759 
-0.04787990909510857 
-0.08589874025208004 
-0.03177794081205424 
0.005782467856732719 
-0.01149034904845536 
0.2764231628810283 
-0.1822707627238178 
-0.004088775199302889 
0.01225361141204808 
-0.004902787760507394 
0.003185471242747874 
0.001168361876783045 
0.1383588596926247 
0.008701003441179017 
0.2897856326450395 
0.006673635472230098 
-0.5774038922926634 
-0.1941528644091015 
0.003405934960903900 
-0.4143470944786270 
-0.1065365810756073 
0.05050803654824213 
0.007792984587227020 
-0.04918644454265394 
-0.1659126285655436 
-0.008487975783154526 
-0.2424251084707455 
-0.04878790033185253 
-0.02662086916626028 
-0.1027742839519030 
-0.1730983226254901 
-0.01559841891547644 
-0.005478203089363149 
0.01025165023241142 
-0.03081899016655469 
-0.3813589619230727 
-0.1619721017633259 
0.2834306829212812 
0.01423112543251368 
-0.02566168715180785 
0.06115616960977629 
0.004592427870112368 
-0.02449695830776803 
-0.2122411290888517 
0.06420226969568402 
-0.04322933458104840 
-0.1611301040790651 
-0.06673727785218830 
0.4773222474593875 
-0.06074018270027223 
0.005793312915855211 
0.1647779025544572 
0.006270311623596630 
-0.07098505073682150 
-0.2284142213286358 
-0.006745653078236102 
-0.1964458409060637 
-0.2860948069989311 
0.004581047959458540 
-0.1302115118380728 
0.9336122317362534 
0.01273729775203755 
-0.01807993125931063 
-0.02291325416087001 
-0.02978826909201443 
0.009020601272400461 
0.1765893127151509 
-0.05445757865276871 
-0.03011896366700539 
-0.1202615519131045 
-0.06167153323488343 
-0.02069279667335319 
-0.3295252656470992 
0.6926180239585243 
0.007976903423336072 
0.004524284623432147 
-0.05932332181163186 
-0.3865391052321556 
-0.05295106502450500 
0.02798382194755527 
0.001581857589729701 
-0.01617750123634505 
-0.002697344431648646 
-0.01868549964059715 
-0.1090659540467568 
-0.4904321121829316 
-0.1993480906288604 
-0.02623723148136572 
0.1297157296053465 
0.2635816822018204 
0.002561379029733072 
-0.2689496895492295 
0.003589442279937381 
-0.1028767594842859 
-0.06965180946820107 
0.003753354001862017 
0.01771308280422223 
-0.07794930977160340 
-0.001087060771481516 
0.0006851702085272215 
-0.3498897929182471 
-0.04435137603316783 
0.1504450935068142 
0.2165567002078630 
-0.1020771065792581 
-0.03003807069556685 
-0.2862679568279397 
-0.05851838217732162 
-0.04100446809917432 
-0.04445884829686993 
-0.2678076369189883 
-0.3594130597328085 
0.005588131622810018 
0.0009219808720714456 
-0.009408038725964732 
0.6568594363327187 
0.2422180401805913 
-0.01015649269028012 
0.2377437143431761 
-0.1349414270709366 
0.2819428993544690 
0.1941022272895373 
-0.07594234186377977 
0.4227258465498172 
0.2166288752506022 
-0.4360585719456342 
-0.08168061214705567 
-0.2019403928357717 
0.01424721183008077 
0.01652195694637344 
0.01275042946650701 
-0.3952880954938370 
-0.02589736742860463 
-0.1015209493345991 
-0.03225719732659279 
-0.05326434078010683 
-0.002102156198073245 
0.4971875474586141 
-0.04303402485135232 
-0.03622441497353647 
0.08711263838121304 
-0.001397929969989843 
0.1304896239258530 
0.003321643395266413 
-0.3217749042642845 
0.01913762952288348 
-0.2544031907888101 
-0.05058093675579600 
0.02861692296294672 
-0.2894826105585568 
-0.01094467193774823 
-0.02982597895770871 
0.02111242643549680 
0.5079262510617925 
0.2876859103247599 
0.5157316400262430 
-0.008167581604582001 
0.009484416138900640 
-0.07620503894849302 
0.1098733334265342 
0.001095780190226140 
0.09509569677574119 
0.5900186329797743 
-0.04776809906961484 
-0.004868190736694468 
0.04135886713995951 
-0.06130473958716599 
0.01550157190480201 
0.005468701706625405 
0.001792709981314846 
0.04853774426133221 
-0.08621977626503400 
-0.006776442483034342 
0.005359017607036625 
-0.3629437458370027 
0.001097517475133467 
0.09409872322966804 
0.003864220239548600 
-0.01818915116611433 
0.01233552543115562 
-0.06547283366981126 
0.003077457759969420 
-0.004088880813344431 
-0.006231038281670617 
0.1124623298462910 
7.631568613786850e-05 
-0.03684779938263474 
-0.03817146283530720 
-0.0007583287078329047 
-0.1495648763555450 
-0.002152172440048763 
-0.5022800225549050 
-0.1232173936597143 
-0.09650592992732525 
-0.01491973265826729 
-0.04483983032721085 
-0.2308280296665052 
-0.1431944763388329 
-0.02133809545994964 
-0.4144962281362228 
-0.5409012577632846 
0.001581832232095322 
-0.05783722916182773 
0.005589009220342205 
-0.02203919456265843 
-0.06893965018907510 
0.006889695091799332 
-0.009988598675616902 
-0.3238973853689501 
-0.05484721387284229 
-0.01718518922502952 
-0.03908639935297134 
-0.01533000799820347 
-0.2914612711894026 
-0.2002987638251076 
-0.001478433466672620 
-0.1082729917881523 
-0.04376425435329365 
0.002073572033730726 
-0.3847203232697505 
-0.01569593636317899 
0.005798094326181903 
-0.01206872800715917 
-0.01692836059922016 
-0.5815376273484116 
-0.09648074906511493 
-0.05588387440860709 
-0.1533666550969960 
0.2031591960288753 
-0.1714733186358186 
-0.004543175551590886 
-0.06421132324303452 
0.007220056080954180 
0.2343764486415061 
-0.01960018978199278 
-0.2458866169105984 
0.04275287252072308 
0.01704931029449271 
0.2200426000628054 
0.5861402054307863 
0.005519299670889161 
-0.0001040571046964985 
0.01530167003753648 
-0.01126368678754773 
-0.02876600258882085 
0.3841101259941112 
-0.04427771994436683 
0.006753188385561729 
-0.08411022374696538 
0.3109799011937703 
0.2160832346706803 
-0.0001969274443345214 
0.003516924865536233 
0.002168639966477440 
-0.004438868047019926 
0.003340851541830095 
-0.3820210998250319 
-0.04920920960534634 
-0.06525357796241234 
-0.1337310538703893 
-0.02889566898189903 
-0.1303062571195538 
0.1395639612958685 
0.01014664259739107 
-0.006250976715329291 
0.01039377953698491 
0.08537700626037560 
-0.01330399048275756 
0.003717051985544770 
0.001476522656768854 
-0.009778076796176212 
0.02727265428895086 
0.1380946078153010 
-0.03527121479306257 
-0.2013254284995961 
0.01129348247211174 
-0.01815154583223759 
0.2171424958163875 
-0.2257883583798236 
-0.05760062448091378 
-0.04329904409746174 
-0.2603009864732878 
0.03370068482889893 
-0.5719997941094188 
-0.004621875096779558 
-0.04820205205296178 
0.006426067973242125 
-0.03969718297987020 
0.2918367147143347 
0.03691927869809614 
-0.04487309226197924 
-0.002339248323688335 
0.001881953327353844 
-0.08438094113510242 
-0.01076944584213948 
-0.2210416899583085 
-0.06653317082765109 
-0.06435580943659178 
-0.05593011279894591 
-0.1471107648184283 
-0.1604609051122679 
-0.02332346330496254 
-0.1306163901020783 
0.001403228768956235 
0.02268472570002431 
-0.03456360333997193 
0.2567574640332511 
0.1223248933940518 
0.002338050612919286 
0.03751661594642563 
0.09074822563545255 
-0.02977895724932059 
0.03604109729604206 
0.05078377404646103 
-0.4258539509605955 
0.005652825685397566 
-0.2373905624507171 
0.01100368413977146 
-0.0008465637490351566 
-0.2340632028090930 
0.7115091927080689 
-0.04284784966662736 
-0.07659814077234439 
-0.01858621904346638 
0.1190731224076106 
-0.001493217579929557 
0.01605906486687184 
-0.03367117535534631 
-0.0003590061986282703 
-0.02921303840737839 
-0.04602595360388641 
-0.002456101820722779 
-0.08475270413884237 
0.007911733058619079 
0.01144863280218099 
0.006210374220549807 
-0.1594283139993678 
-0.1522978947806422 
-0.1026114315190125 
-0.04862173609181324 
0.03570688027091142 
-0.02415382619252325 
-0.08183046702670004 
0.02776810272046328 
-0.06470308210426477 
-0.06554369754590052 
-0.003438647263653348 
-0.1354901792314433 
-0.08076081318955526 
-0.03531968748560838 
0.008456061762285721 
0.01041661147169921 
0.001698511535840191 
-0.02389264037631865 
-0.02276428793642919 
-0.3026506898485905 
0.006420476504148915 
-0.04930560236849192 
0.01401841678895019 
0.005519299670889161 
-0.03806814391171006 
-0.2813728838665315 
-0.05977928703167751 
-0.002543127784425216 
0.001094790273162559 
0.01911870267159882 
-0.1730498649768631 
0.1378154991630342 
0.005890556032608345 
-0.2383550316342907 
-0.006592701612355733 
-0.01347456101495870 
-0.1344434253278412 
-0.005772285928713605 
-0.5195524397283244 
-0.07882645631733158 
-0.02455362279025086 
-0.0004807296311504915 
-0.001127938870743667 
0.005783419696834245 
-0.3007065042189204 
-0.0004732799494557331 
-0.1247682732521568 
0.3194022163873191 
-0.01110768707474038 
-0.05686356559539361 
0.2771047567619663 
0.008456061762285721 
-0.004494192151829384 
-0.1233441527077282 
-0.002862218357878024 
-0.004827395959684730 
-0.04569432090867544 
0.03989486018910204 
-0.2022038867037920 
-0.001737625875541399 
-0.08395773087483341 
-0.4243347190511047 
0.6554078460912773 
0.2888933902656189 
-0.05072591911006905 
-0.3442226565041605 
-0.001487299591137015 
-0.1540649391427663 
-0.06309248173564388 
-0.1647838533780864 
-0.2651411523038130 
-0.08645293737634274 
-0.002102156198073245 
-0.1417705156482033 
0.2128992376113913 
-0.1585101340787977 
-0.02142493889100616 
-0.1018813516908559 
0.01329558709886485 
-0.001428629293665842 
-0.1305866632594550 
-0.04568094419903451 
-0.1194725582237659 
-0.04822597383505769 
-0.006449145552647389 
-0.1154688242576363 
-0.1036722407324639 
-0.4179621415736758 
-0.2893004663201324 
-0.2788172768435809 
-0.002253462411441683 
-0.3452150508664215 
0.01241944511274125 
-0.1238008402503847 
-0.2175592493632494 
0.0005335346086092408 
-0.02547967825129738 
0.001274720414012612 
-0.06158577919483982 
-0.1801647027725323 
-0.04170131202136455 
-0.6202527421508295 
0.04157111050228955 
-0.2398641099621049 
0.001982688667541010 
-0.08222644900052950 
-0.1020465841847296 
0.007537441298557823 
-0.2040002778088163 
-0.02978826909201443 
-0.04199630198951532 
0.003528131680717341 
-0.09781096338887847 
0.05283794502391370 
-0.2149533315149989 
-0.09984791175924085 
-0.7196046984676356 
0.4160434879673078 
-0.01241713838543403 
0.005064488454028314 
-0.02732667900226130 
-0.01831849222539111 
-0.3823200888726458 
0.0004416833007262977 
0.2108589620743376 
-0.009709911299939165 
0.003209864747599138 
-0.2163292487771643 
-0.02786714241318580 
-0.009637619034474090 
0.08461189804004753 
-0.002694993734955679 
0.2780847668495744 
-0.06811895392705968 
0.2233684174752317 
-0.1350497253645990 
-0.006081346084902503 
-0.03685963961200600 
0.004421717200194162 
0.007887248807801523 
0.3474506850527063 
-0.1763848375245305 
-0.007112004107383503 
-0.001493217579929557 
-0.06278221646949395 
-0.001702350264883328 
-0.05371565061721893 
-0.001124560783324097 
-0.4079955241798791 
-0.009057509343201320 
-0.005478203089363149 
0.004813306025312525 
-0.04936595191702919 
-0.003922952676227038 
-0.02273118588080193 
-0.04646238215059768 
0.03374495141399182 
0.0004838393916205325 
-0.007255859126097705 
0.005588131622810018 
0.003750996404713745 
-0.05767896063267324 
0.2578902782747644 
-0.07178602836729757 
0.01590726401354434 
0.001543271891265791 
-0.004868190736694468 
-0.04105079039947582 
0.3180750748048644 
0.007763614280575214 
0.009357816203771165 
-0.1263999327434419 
-0.1879371603632325 
-0.03367117535534631 
-0.1812447915705588 
0.005417597910844298 
0.3443777418944907 
-0.04835725808909353 
0.2559710683899940 
0.004375209184186963 
0.004769909998882565 
-0.2523246050661005 
0.01019455992887171 
-0.002456101820722779 
-0.03622001527689375 
-0.2102225765822174 
0.7545992256952851 
-0.05509446818922323 
0.3742063095568485 
-0.1678774900219173 
0.3805563816224437 
0.5746331634093033 
-0.003382687878836123 
0.07144131509355922 
-0.1776447365032233 
0.003698163507774406 
0.0003351966698224161 
-0.06578183985499833 
0.003777634071201900 
-0.01591712957376511 
-0.3951193846469045 
0.005833973254348274 
0.001772460505173221 
-0.1084844548013684 
-0.2930173580610685 
-0.04933304093063051 
-0.009988598675616902 
0.02935319691679813 
0.008714476754013127 
0.03294594566467079 
0.5193270155189906 
-0.2380103993225272 
-0.004426621124168691 
0.004121349408480517 
-0.2535272460213652 
-0.008668756198048107 
-0.09234724945851365 
-0.3823504092875198 
-0.2216373910405349 
0.02360333625080281 
-0.2235364219698633 
0.01820157991522035 
0.006502041062093004 
-0.4240756301593183 
-0.2148145125325000 
0.001059959638591327 
0.1361993939921324 
-0.1444153554277278 
0.5234091373585651 
0.1775732953737721 
-0.2396941538236581 
0.006420476504148915 
0.005153227743247987 
-0.001259748504044034 
0.03038309825313609 
0.003370603660017640 
0.05353017444857408 
0.08386631444004597 
0.002962712051091027 
-0.03346277498397811 
0.009869745471339402 
-0.008712149611274735 
-0.05011593562385103 
0.004247885310566014 
0.01828123984178519 
-0.1440189004834359 
0.003402309506104162 
0.1437799083542237 
0.03344624044742203 
0.06722567207084561 
-0.02547401068574130 
-0.5376150921532878 
-0.05039410471784504 
-0.4414430761647420 
-0.02468759640929521 
0.01554168110894428 
-0.04619741476240642 
-0.05441037322990994 
0.01875657197816496 
-0.1133222152281458 
-0.2047231824926155 
-0.02852669465698065 
0.007389204169736836 
-0.07774666379179507 
-0.1629961929406457 
-0.2683019257048646 
-0.02693468932843607 
-0.01465052295710193 
0.1275342252451957 
-0.05901501124402270 
0.1453662827931425 
-0.1252867682084041 
-0.09795215765514276 
-0.001406741448290531 
-0.007902310005289022 
0.006152766456490230 
-0.2196738574882316 
-0.2550408846377404 
0.004343994284457584 
0.01025001264579473 
-0.09620401826253103 
-0.01222308929960037 
-0.005077186441858995 
0.003316899853781874 
0.06247834152385652 
0.0008456461252875521 
-0.05346785631535071 
0.01460953929662865 
-0.1154316044342663 
0.2130085099090253 
-0.03225762525490689 
-0.007027732433966212 
0.005417597910844298 
-0.4290459008712535 
0.1354907209969711 
0.001168361876783045 
-0.2112433902669203 
0.007096510297664097 
0.5540039969806506 
-0.03704204006724267 
-0.07221555987726734 
0.002173273133297651 
0.02802301418433596 
-0.4970957137765685 
-0.01585681271842121 
-0.1473626899179192 
-0.1520348149923497 
0.2406177336838694 
-0.1475006937687561 
-0.005812701524331147 
-0.01248104212974565 
0.006464343897453698 
-0.03625641572176323 
-0.001164054763008859 
-0.1538351910064020 
-0.1386105189307001 
-0.002248056868138476 
-0.1065657706421725 
-0.2379960495337876 
-0.003241220061504863 
-0.03999704161020144 
-0.03817146283530720 
-0.0009423846169449989 
-0.06981202648969097 
0.2369627126946458 
-0.8395595262542238 
-0.06245900283549232 
-0.02635749836615968 
-0.06658064942407683 
-0.06956563971315640 
-0.4253418278369204 
-0.01396252779692061 
0.08053452856618304 
-0.07474921878287151 
0.001794445260286993 
-0.001376827588960969 
-0.008780723705722892 
-0.2770399156225691 
-0.1030495496870477 
0.4721933898270171 
0.01883577422124755 
-0.01582102042841044 
-0.01252816387020277 
-0.0008828877669611456 
0.003340851541830095 
0.005640180590401922 
-0.008883098755653830 
-0.002747593777836356 
-0.004249382799878772 
-0.04461149888066601 
-0.1365880538814656 
-0.2010958574932156 
-0.5210140544122563 
-0.01821218410238070 
-0.1738011445443159 
0.004317187162461480 
-0.1349187387981544 
-0.5478818209948777 
-0.002524886993296008 
-0.05731287623793975 
0.01098229678983739 
0.01080292325807508 
0.06280570961329028 
-0.3952723839427603 
-0.07882645631733158 
0.01898650506209023 
0.01140840209213469 
-0.4406612075943130 
0.1579192162158895 
0.3357039484638229 
0.005592637416471157 
0.0007193956772058878 
-0.1540092787953823 
-0.002460486869736928 
0.009882617580325749 
0.008636654007249663 
0.1319851662032838 
0.004032514534960544 
0.2941320603721843 
0.008266057028948514 
-0.01726166780840707 
0.001814710515384741 
-0.1734285498010708 
0.0007951086346956618 
0.008322779359695755 
-0.02291251229160502 
-0.0001935326460068342 
-0.02854137719727531 
-0.004419723829695469 
0.01100332572208115 
0.003482635383980302 
-0.002031252440618146 
-0.03225463791494748 
-0.1717973186724111 
0.8764755904233850 
0.08461189804004753 
0.3972010725280835 
-0.01935994061528404 
0.008770081632827819 
0.0009347833036249060 
-0.1574851715390396 
-0.3290235269229345 
-0.09006838367547237 
-0.2192205987905883 
-9.287781452490342e-05 
0.08064082980960526 
-0.01976450341846411 
-0.1165933504780451 
-0.2053657454551916 
-0.08606000363702627 
-0.1032238292999559 
0.2030882206056058 
-0.2053657454551916 
0.06382068440809834 
-0.09626039499621496 
-0.1613897800819701 
-0.02925048389061596 
-0.05060116288233423 
-0.02780512942898366 
-0.1080887355215018 
-0.03324387226446154 
-0.001224938045356768 
0.1364900384769324 
0.0007856725601595000 
-0.01848135944506878 
-0.1177438138772885 
-0.06914323489624608 
-0.1800198185955199 
0.1858464775627688 
-0.003110309936300855 
-0.02898961371217211 
-0.2198592262783124 
0.2197510845459758 
-0.2498253857413603 
-0.01107713915625993 
-0.04239676033381477 
0.004787881327028693 
-0.06699405432984051 
-0.002458045934069781 
0.3516303215830396 
-0.02359063113873413 
0.4625777678676787 
-0.1361428490519054 
-0.1211630523629183 
0.6728030596327094 
-0.06804550203603434 
-0.4896005088777951 
0.04027859899221225 
-0.001712889121749273 
-0.08669745053225882 
0.0009310024757887120 
-0.08592699112212192 
-0.1810672734228075 
-0.2123188594171953 
-0.01920329012489939 
-0.1931443701849073 
-0.04832826337448987 
0.6484738568040153 
-0.1859130942726091 
-0.04381718259780217 
-0.01443480847903094 
-0.005871641698945294 
0.08463509810822285 
0.1899083729655724 
-0.4181022582277897 
0.08404412963203213 
-0.02269341524296886 
-0.09842593396086909 
-0.02078965332324190 
0.6525053441447580 
-0.02433890501280208 
-0.04411412988334730 
-0.04730630838299718 
-0.08164533277744028 
-0.1102118532803262 
-0.06167261788537059 
-0.03246345992877915 
0.002028018964164905 
-0.2801384428297908 
-0.3443045333365887 
-0.1183258882501868 
-0.1207669139849687 
-0.07453622887810230 
-0.1217673522025392 
-0.07147014991640255 
-0.1220894991217007 
0.0003307501621768351 
-0.1754917283763207 
0.06540130401089694 
-0.0001753905455708568 
-0.02039253092307099 
-0.005783355966122927 
-0.1197605553772962 
-0.1186167909645564 
0.04273605573918109 
-0.1192577458636497 
-0.02123274264026128 
0.004695180254659048 
0.008279171551803412 
0.09843685966820500 
-0.08239171016943352 
-0.2277529328658486 
-0.2148322344901431 
-0.3754651025627885 
-0.04158903154438928 
-0.001672285757312096 
-0.2202236474798817 
-0.01049212921134666 
-0.09801334254301054 
0.05201813228040228 
-0.3104121124787640 
-0.004158681245761934 
0.0008174425861086107 
-0.01570978721208768 
0.0004720721173498120 
0.7322272733462136 
-0.02048730106528357 
-0.0005604124240255011 
0.0005069463126616937 
-0.004748333433701703 
-1.034136592655999 
0.004247456290083244 
-0.1644011202357179 
-0.01604512634394163 
0.005640180590401922 
-0.06935676501930078 
0.05272014080834503 
-0.1759974625538845 
0.003439014562820109 
-0.01403684580907788 
0.1098796153966219 
-0.4138251912957410 
-0.004347901828769512 
-0.003327992109233531 
-0.005637400856604555 
-0.1563266525187015 
-0.1389922825157900 
0.003321643395266413 
-0.1531618895580156 
0.3175609845012958 
-0.001319776279500125 
0.007301800936390164 
-0.0005790390117793760 
-0.1598019586187793 
-0.2166617094939778 
-0.07186049668340593 
-0.1378042132945179 
0.009660022583929914 
-0.3297970544290430 
0.001391814088077295 
-0.6638517250896987 
-0.001173114825423673 
-0.001915390300588211 
-0.2594846443561509 
-0.01495796919772884 
-0.2086011835561033 
-0.02804469403148220 
-0.01352896480424952 
0.4840829876323032 
-0.3294041885147701 
-0.6233634573161099 
-0.2695055362167532 
-0.005365970268191908 
1.858578019400825e-05 
0.3920474078137706 
-0.02843399863722398 
-0.003697416710920475 
0.004817032800213657 
2.559625421475961e-06 
0.005369916172768193 
-0.01718518922502952 
-0.04891167044293261 
-0.3783824540996567 
-0.1113275337068116 
0.005315877237138738 
0.2512712716318914 
-0.2196864512916070 
0.008383001618093786 
0.002443438257393462 
-0.07616693318829501 
0.001984396006532622 
-0.001672285757312096 
0.02314350829619978 
0.1365280729645894 
-0.07354714598118628 
0.008994673715150073 
-0.3355982128421829 
0.002028018964164905 
-0.4333854523343604 
-0.1168858964709650 
-0.09828049469565713 
-0.2037695136395885 
0.006847768873555997 
-0.04635481592518037 
-0.3316367109902834 
-0.01188859410204871 
-0.07580567254667545 
-0.09873537085191395 
0.02537637390889924 
-0.01184273305163588 
-0.003745106806973146 
-0.003685789098105035 
0.007075700486331226 
-0.05334888049408404 
-0.1665200731990272 
0.003119395642185462 
0.002257767654809171 
0.006234232038124714 
-0.04903661779238839 
0.001636196792642209 
-0.03905504505447964 
-0.06548555038749451 
0.004275337770746315 
-0.04622349248395443 
0.09053910805893099 
0.3569624764707135 
-0.07331166995757774 
0.008636654007249663 
-0.03367117535534631 
-0.1224577695161052 
-0.03095134258572371 
0.004375536193736834 
-0.1103326243427297 
-0.01193475731776971 
0.04551345437414779 
0.4369234368351620 
-0.01778197679738722 
0.01603619092792279 
-0.2209355304012933 
-0.001218022859795880 
-0.01384235650823272 
-0.3364208984034968 
-0.3794470965012488 
-0.2163743809559017 
0.08537700626037560 
-0.07830785618336908 
-0.1902730842715227 
0.1517409392021783 
-0.01097036619054647 
0.07391973258874673 
0.1066631059836329 
0.006620067391290212 
0.007479002297531082 
-0.06109916300841067 
-0.1284217981612215 
-0.4173660492003009 
0.02336117291032205 
0.005679043455122001 
-0.1420467899970178 
-0.002829802983412269 
-0.02606210405730653 
-0.001737625875541399 
-0.06740265649534163 
0.0006059584316763166 
0.007257584224040900 
-0.2087752778387730 
0.001912318748364703 
0.08166523980215115 
-0.009905592734287504 
0.01716177814103981 
0.2973913827085370 
0.002776938078627906 
-0.02266051584744099 
0.0008973537290696810 
0.008836741729220741 
-0.06285603695920020 
-0.02831009790373825 
-0.4147556426163170 
-0.02576735462771577 
-0.01191952981583120 
0.04053249783674955 
0.007738570081249859 
-0.09424564940329540 
-0.02634658033810848 
-0.005169371591372440 
0.3671039947110000 
-0.4141473142986265 
0.03318390811998800 
-0.02921559550659905 
-0.1958982999550302 
0.1288245283075470 
-0.07612836502375743 
0.05535298303266970 
0.002666146549859447 
0.5011433502333071 
-0.01421776065489870 
0.1305077354761649 
-0.04081560598107216 
0.02050002529158947 
0.002821723361227519 
0.08386631444004597 
-0.08528920737067394 
-0.2994875652226434 
-0.002736495291596359 
-0.003521256685612432 
-0.1416898793266289 
-0.1517555400860087 
0.008307212034351700 
0.02591382624797049 
-0.5891658063362697 
0.06943999044075151 
-0.09689687523639891 
0.5795712652900791 
0.3124223044254584 
0.07464819177679848 
-0.08494854911889019 
0.1854164753497150 
-0.05167121918981058 
-0.01481105841851494 
0.007741871146345270 
0.04850282835984956 
0.1722126844216521 
-0.1485118373444205 
0.001802667438806708 
-0.2634888328364122 
0.02850852245930067 
-0.1496740440883081 
-0.1258261997842921 
-0.3015512803544234 
-0.01873133834106574 
-0.09533062848312580 
0.004399023652030164 
-0.2667201912869671 
0.01273729775203755 
0.5679926664459588 
-0.01188045541302774 
-0.2870380871061546 
0.005567366179193043 
-0.0002323558205628575 
-0.002102156198073245 
0.01129008984244393 
0.006423623722460411 
0.004240961628943511 
-0.6453757115011043 
0.4872171137771937 
-0.01892330251092674 
-0.2088286325066517 
-0.04774301255228979 
-0.1542056268194075 
-0.1696345809925792 
0.004077153410990471 
-0.2086011835561033 
-0.2092680893903841 
0.02104934831210991 
-0.008813938241367100 
-0.08071612316889398 
0.008435348083554853 
0.007137774077225549 
-0.002747593777836356 
-0.06923103379208137 
-0.001527575699571231 
-0.006134019234324281 
-0.009988598675616902 
-0.8226658458584055 
-0.2661812105842361 
-0.4529429325014110 
-0.2904638064697978 
-0.009614755812218302 
0.0005335346086092408 
0.004583314703430298 
-0.2883496576628116 
0.005078568281318011 
0.03545338285682971 
0.01045870346925048 
-0.8458420877798909 
-0.1568054303803212 
-0.06678905609481196 
-0.01471001228665973 
-0.2989029389547709 
-0.4072759223049112 
0.02489721871673747 
-0.5397865127893887 
-0.08854719067886355 
-0.08798506826685402 
0.02051976066056769 
-0.01991630691216727 
-0.03488839672390096 
0.004909970005784307 
-0.02505928495711757 
-0.1007278853095210 
-0.07936575127069591 
-0.01975928407220491 
-0.08026718829531140 
0.004454225111710985 
0.2530310278563993 
0.009741188840726708 
-0.1419570912920217 
-0.0008465637490351566 
0.004199236114105158 
-0.3317972931802440 
0.001702889586656330 
-0.05372096031846650 
-0.1941528644091015 
-0.01088515916180352 
0.5140945246863738 
-0.06578183985499833 
-0.3996231569704087 
-0.3573739750570304 
-0.06893965018907510 
0.002134242886394362 
-0.3873261345845773 
-0.007947803972276108 
-0.004041563163768996 
-0.02955156467967731 
-0.08671300409993690 
-0.3882399877229446 
-0.01185279841872259 
-0.2148322344901431 
0.009724765252458946 
0.007868429755765445 
0.005272857139456948 
-0.1308096773392342 
0.005606587436881038 
-0.08966433775143091 
0.09995992216503534 
-0.1801282347684585 
0.01369411613862653 
0.3670298529031428 
-0.08421602307339282 
-0.6374536872869079 
0.01827331932275395 
0.01273429349718668 
-0.1759930204239828 
0.02324678282720508 
0.1797835929688726 
-0.02953845533222975 
0.008279171551803412 
-0.04454827652899113 
-0.4239463041743327 
0.2209597717507776 
-0.007867623344690926 
0.1966492885895766 
-0.04597443383071086 
-0.005772285928713605 
-0.0004807296311504915 
0.1760601597683184 
0.003598607761733525 
0.2466017799816384 
-0.009399789764499277 
-0.1072218372230749 
0.01330654242708016 
0.002378013282511575 
0.01027935704767400 
-0.1036722407324639 
-0.6899781200297923 
-0.08024154597940117 
-0.1463084633628946 
0.2019183910553691 
0.03512496978714357 
0.01590483308801918 
-0.09346629551063589 
-0.01233678738080338 
-0.03202960297917697 
-0.1445709089555633 
0.4538447134241292 
-0.06200912189351826 
-0.1511204550883542 
0.08583512212581569 
0.04545120465117818 
-0.2376571149518745 
-0.06560214143969240 
0.2041718863113602 
0.005369916172768193 
-0.06025317347758594 
0.1007471526394137 
-0.3333494354841825 
-0.1674383822820292 
0.007489150582301577 
-0.004565792863919856 
0.001281158632229790 
0.006101309834591718 
-0.4205720427177869 
-0.2478328709960685 
-0.06664298845263629 
-0.1941528644091015 
0.2409886528336496 
-0.2492880285997131 
0.004861047421318248 
0.05938129025290055 
0.03585085818309444 
-0.1518637794676962 
-0.1958108782648489 
0.001850618529065442 
-0.02839816292534155 
-0.1120180026078823 
0.004596070591744914 
-0.09893902027059323 
0.01703997122962588 
-0.06488703029096309 
-0.1924430840460631 
-0.001184024832207177 
0.007540949426908635 
-0.005325589357877489 
-0.03010271068647830 
-0.4858993456284153 
-0.1112441122427281 
-0.1703714659007466 
0.004490756089310481 
-0.2187851689833451 
-0.08088602283028813 
-0.03395527371484856 
0.004140729686632428 
0.003297093390683474 
-0.02678169665726318 
0.02781910989527757 
0.2079728360663696 
0.004399023652030164 
0.03699044027951595 
-0.01989457894005371 
-0.4631799559277500 
-0.04135336364022012 
0.04063319568381709 
-0.2464707332020735 
-0.1441485818656091 
0.06025658606121900 
0.3777654706703095 
-0.1957474697777046 
-0.05907940400174622 
-0.1871658161810594 
-0.08624818894059026 
-0.1478831090767271 
-0.2426528950287160 
-0.001217246476622475 
-0.2180488821289644 
0.1620989172735803 
0.1442842629681559 
-0.2398641099621049 
0.003964692237159055 
-0.3028701088227678 
-0.2802699953882675 
-0.1932196311932887 
-0.03110213512695994 
-0.08367780850151345 
-0.05793389392216475 
-0.04283219537198289 
-0.1441770651699187 
-0.01890376041160705 
-0.03241809053263325 
-0.004776226553107006 
0.05785435649615779 
-0.01852120878056656 
-0.2437218697648906 
0.02143103034642172 
-0.0001901135412482349 
0.3054015028501078 
0.03471850994447714 
-0.06374905587852883 
0.2597973716757484 
-0.1861340639736272 
0.0008875361308903012 
-0.1317315557177075 
-0.007191455033299397 
-0.1394784307414166 
-0.08149223989224243 
-0.3150823473016519 
0.006034805507841686 
-0.03560792426381897 
-0.2440383126684373 
0.002932974946649753 
-0.1621017561234180 
-0.4318308950926813 
-0.1143831848819019 
-0.01984154440935086 
-0.02634658033810848 
-0.1748050959700631 
-0.07991656330258008 
-0.1522873688067715 
0.05644886202402197 
-0.2495558015521918 
-0.1544364802544373 
0.001777061356847358 
-0.004815510959501938 
-0.2314056195329759 
-0.1177433713291763 
-0.06571523570106602 
-0.03199045134322868 
0.1068853309248197 
0.008060639892968461 
0.08910969121870284 
0.0007158696997795785 
-0.02051422180854614 
-0.05512263650089257 
-0.01890376041160705 
-0.001200311806947857 
-0.005079631911529364 
-0.06725576574671127 
0.02346437964603611 
-0.3072371382790726 
0.05416544321151293 
-0.3583663671622714 
-0.04389908673937073 
0.007292515849125518 
-0.1963989883948720 
-0.08884265940455031 
-0.1262981401166282 
0.003326765736205690 
0.1820075142497090 
0.0005548289348811242 
-0.1971603647245198 
-0.1169656093263107 
-0.08719683190707529 
-0.1009026459131656 
-0.2784960792191071 
0.007948008508564766 
0.003790304559397296 
0.005316006623355291 
0.4561626034269977 
0.04796729964892305 
-0.2846952050875261 
-0.0006223621296271313 
-0.1253931554039463 
-0.2243694688785744 
0.002539379579505140 
-0.01901843128945940 
0.05525257865094895 
0.002962712051091027 
0.004552002668577696 
-0.006105016619909141 
-0.007947803972276108 
-0.04725447299489063 
0.01443613928461743 
-0.1315394561590854 
-0.04500059076844065 
-0.1201700910290971 
0.004462330250409489 
-0.0004258992857713229 
-0.5528685619764446 
0.003718938445229452 
-0.006081908331691617 
0.009869745471339402 
-0.004543175551590886 
0.1269456783392468 
-0.03290505988918510 
-0.01807265381401702 
-0.01998177880763095 
0.01423112543251368 
0.004621726418300472 
-0.08059889335059815 
-0.04150241147846358 
-0.4979111636679008 
0.1165193337797492 
-0.04314431962988537 
0.1936392319868669 
-0.07410120387386131 
-0.02469534285385395 
-0.01725645287111671 
-0.1953100019384562 
-0.0002857997705082317 
-0.5022166634092888 
0.01918972541489645 
-0.1416898793266289 
-0.09105128313818010 
-0.06855166004483557 
-0.02977895724932059 
-0.01975928407220491 
-0.01531916134279424 
-0.04015955249567456 
-0.002003960646239189 
-0.1021954187587230 
0.05455457732026214 
-0.01605572201869952 
-0.06616870011402555 
0.07160917345433092 
0.007286636625019610 
0.009535096359713327 
-0.2095596003613982 
-0.03801475279748687 
-0.03685963961200600 
0.02077112572976150 
0.1959966146271885 
-0.5826080150453454 
0.2505085852149371 
-0.001397929969989843 
-0.2354902010310457 
0.007593315137747334 
-0.3399852354585184 
0.005279564864185711 
0.7879684746026235 
-0.9336876278953930 
-0.08977048161683200 
0.03858099605353686 
-0.6413170179900692 
-0.01771249439981468 
-0.05947098757792818 
-0.4994937194237384 
0.1328589586833703 
0.09682074113899233 
0.0007373465660716679 
0.01385741736474189 
-0.4152685277277103 
-0.002400360126932814 
-0.2668290238930312 
-0.8774648339809789 
-0.07410120387386131 
-0.08213451265849933 
0.8004928674080398 
-0.1849585377214582 
-0.01418776187102832 
-0.1962701412455027 
0.006156496468408906 
0.3930718672150817 
-0.2322042222840762 
-0.005142988858091448 
1.368304375056464 
-0.002281823478604055 
-0.08161403474606624 
0.006642683452780889 
-0.06893197812217014 
0.005967373596906274 
0.05550375833880997 
0.007282139713672730 
0.3359657691610198 
-0.05505123904389675 
-0.07172454816313653 
-0.08693223668220047 
-0.3853984962893991 
0.5365363005643615 
-0.05113563601651223 
-0.3160156342699816 
0.0005882452965469567 
0.01293390317672202 
-0.1124125234240254 
0.5600828783099127 
-0.009905592734287504 
-0.1171601144343479 
-0.01839496606082998 
0.01915040063860837 
0.002387355345073863 
-0.09630417090986843 
0.009741188840726708 
-0.2065266607232871 
-0.06735448735680712 
-0.03169203615037025 
-0.1720329039401522 
0.001434596596528262 
-0.05516883137913581 
-0.4601598118564846 
-0.1055963660133176 
-0.0007945730096225751 
0.4208751131594529 
0.005811383802263793 
0.006942508989745241 
-0.1426829594198812 
-0.1379558592536899 
0.03163646094012920 
-0.04406454709393230 
0.004328763658597970 
0.0006858640573194854 
-0.06917276898138579 
-0.009884165083566540 
0.03014131793624622 
0.04666278619772755 
0.009195113610311290 
0.6786977631319243 
-0.2281373980648430 
-0.2680146887671554 
-0.07539527131381556 
-0.01515291778009265 
-0.1314862859304902 
-0.1911353831305048 
0.5134260689418462 
0.009826267216252748 
-0.1330870141512847 
0.005014199748185982 
-0.05271593256135392 
-0.03199045134322868 
-0.2632773005159113 
0.3666755796587103 
-0.4481318520435866 
-0.01824777147787127 
-0.08452997201885282 
-0.1315187095101146 
-0.07381534127101283 
-0.2195656888886705 
0.002656092693332768 
-0.2655793869117780 
-0.005715395254066054 
-0.02620227283913968 
-0.04135336364022012 
0.1477382371195518 
-0.6825561722398978 
-0.002599944046052610 
-0.01310946309467282 
0.0001697442262001403 
-0.2522672195064011 
-0.05385399121184182 
-0.4029485923380477 
-0.07215393167642178 
-0.002720691656778364 
0.005833973254348274 
-0.02058352619920860 
-0.07506067271333171 
-0.07647771566710013 
0.3011169992477741 
-0.0006477801847437179 
0.07463343926474846 
0.1166433920123946 
0.1248221310900478 
-0.02720514479946764 
-0.2049197897140036 
-0.2281774243753820 
0.01603619092792279 
-0.6366969524713483 
0.001321191158634443 
-0.02616175423428638 
-0.3755656414299000 
0.002596086170157864 
-0.02354401845574758 
0.01332501330007954 
-0.2336851462066346 
-0.1555598612537019 
0.006948176310444167 
0.02008580361824910 
-0.4480386485988619 
-0.2087752778387730 
-0.002129749129948158 
-0.08025326808452160 
0.05390672061053813 
-0.07114124928241182 
1.122116887598831 
-0.01072297578708957 
-0.04148962715256799 
0.001859912115278066 
0.2626459236303066 
0.09539351114534479 
0.002399787257423840 
-0.0009080619845912700 
0.01949516225981308 
-0.01049212921134666 
-0.002986549846321218 
-0.02795521467437448 
0.0006472975667778874 
-0.2853676466622679 
0.0004854520678955971 
0.009641138214430040 
-0.1010133417443387 
0.03419332912868252 
0.004247456290083244 
-0.3407173318316047 
-0.4220307711740371 
0.3610710907086308 
0.005104256023584383 
0.7410688953028868 
-0.01104142127396541 
0.2777435387781244 
0.0009467721574489187 
-0.1632673150035397 
-0.001295574668044249 
-0.01518973532933906 
-0.3786141351008467 
-0.06996251370390189 
-0.1032238292999559 
-0.01559841891547644 
-0.01402983853745106 
-0.5846485031154718 
-0.3560462938325476 
-0.1907314198934851 
0.07022662597548879 
0.07001470061027146 
0.02579230436269826 
0.009051256751867534 
0.3828898691737142 
-0.02027324762563469 
-0.03034515217194796 
0.01898650506209023 
0.2286552246721056 
-0.01590408226786053 
-0.1883739765301153 
-0.009892216385904111 
0.02505174722508706 
-0.04324031612938928 
-0.005203062609554931 
0.3245899433729579 
-0.03221839213857766 
0.01100332572208115 
0.004132313154866164 
-0.002514152693941993 
0.01074229762848341 
0.1336158812545780 
0.02335471000764205 
-0.1326921565286177 
-0.4748396024821807 
-0.09655701266989578 
-0.008839273375271284 
-0.2022876603966889 
-0.08492847157176349 
-0.06778274874969156 
0.001497213217337513 
-0.02610572768468601 
-0.07038436031637328 
-0.001799960592078857 
0.1963569884602862 
0.1369823538935075 
0.03214141114822174 
0.1121058499436905 
-0.1596599847883695 
-0.3960362297176037 
0.2866641577687179 
-0.4432148723070329 
0.003325515001291965 
-0.2021097801285052 
0.001777061356847358 
-0.02407144883535099 
-0.3021045876309901 
0.005133492847281884 
-0.1287527070195551 
0.01550157190480201 
0.002355514773923626 
-0.07158868142213992 
0.01240710841116090 
-0.1613897800819701 
0.01385741736474189 
-0.1822256490290622 
-0.03422920692325967 
-0.1192040987197130 
0.03163332448132274 
0.07168019311742384 
0.03272506754815447 
-0.01132979202009535 
-0.02673476631431081 
0.007855556598823500 
-0.01285836492686740 
0.009202423219903305 
-0.04641698730023724 
-0.4307640910094489 
0.05762203430029161 
0.001581857589729701 
-0.02960906457213837 
-0.03889591733446902 
-0.1165933504780451 
-0.006495637919487807 
-0.08432174431330905 
-0.02631156749621119 
-0.1051127046776432 
-0.2991679643171756 
0.006420476504148915 
-0.1242027907986300 
-0.1180098242205017 
0.08242087121401158 
-0.05935775112578414 
-0.7399720936048514 
0.005145022381356887 
0.3089760101741204 
0.004303903398534481 
-0.003140240640196771 
-0.06096977751477594 
-0.1977334703422867 
-0.06409713795384221 
0.05634547638539902 
-0.1253931554039463 
-0.09197451514686816 
0.001751960982981851 
0.05969028058393902 
-0.03733608153563875 
-0.03324573981017572 
0.0008208270445368199 
0.1327623784983967 
0.1925065373869571 
0.3170563692153624 
-0.6156012558466879 
-0.009231561316419166 
-0.3571627133048412 
-0.02788010062961997 
-0.004114241172639283 
-0.02275802070747572 
-0.2472062988781471 
-0.6225793563052385 
0.03898327388590960 
0.1003638363036442 
-0.07324095122007708 
-0.02767185058022426 
-0.02815443091463933 
-0.03484120640227965 
0.01800479244643720 
-0.04399534744079445 
-0.0002113042714223625 
-0.2925623617077831 
0.003923673453913128 
-0.001523234218071897 
0.0001628686837392334 
-0.004848798487034907 
-0.1320717851354570 
0.008793996423581116 
-0.01384369350575911 
-0.03679470779573152 
-0.01491973265826729 
-0.08152106900989250 
-0.4165331752748995 
0.0005069463126616937 
-0.0004649891067532146 
-0.02352128151095170 
0.6474539921035085 
-0.05742468611485179 
-0.07604773306939805 
0.5860223239995910 
-0.2991787619223003 
0.0006061924808673737 
0.05431780521680521 
-0.03201193916016123 
-0.08315511059925440 
-0.08443220337149211 
0.004885097158228085 
0.01503883457771552 
0.08759082035127255 
-0.04524567220230684 
0.001470833379297909 
-0.1154930017032361 
-0.1083122473439343 
-0.2940576450986266 
-0.005478203089363149 
-0.2338069850107223 
-0.1101439246752355 
-0.3566513066934963 
-0.05793389392216475 
-0.01885376477495519 
0.005300670681593039 
-0.3599756742734681 
-0.06074018270027223 
0.1833176366845030 
0.1913024785219772 
0.005556785178269050 
0.01421330866638049 
0.005639982906587148 
0.1983483278735736 
-0.002458045934069781 
-0.002623521849895816 
-0.03116716223993735 
-0.2156763399243843 
-0.05200348207038909 
-0.004585478706246263 
-0.06148630987977346 
-0.3027635796641343 
-0.004055966277453495 
-0.1371883297316270 
-0.2551555274012848 
-0.3727987255305014 
0.04882451419114153 
0.1234602687338553 
-0.2348846403044773 
-0.009043796045186361 
0.0006948366210693055 
-0.1103326243427297 
0.07734749657866129 
-0.07479884699662125 
-0.007027732433966212 
0.005432053500236190 
0.07505709213981854 
0.07143737328604152 
-0.1303204889117541 
0.02004681043518512 
-0.02011546103416121 
-0.04811904882545399 
-0.03631401598022366 
0.0008202703742178701 
-0.02782100929377111 
-0.01653543178233125 
0.002283310244197569 
0.001822005103625857 
0.8793161850044722 
-0.007164863099458775 
0.4705046547538563 
-0.1414379196170595 
-0.07163674944141984 
-0.002471481956372258 
-0.2820769344328053 
0.01241944511274125 
-0.1591821079007850 
-0.5531995657170280 
0.008774923819161920 
-0.006105016619909141 
-0.1633456865624454 
0.4872606987334491 
-0.0003633484917966326 
-0.4443770408100930 
0.03688581673962822 
0.01466360936760395 
-0.002794970456078748 
0.3300267143260572 
0.01423112543251368 
0.002682033414349973 
0.001934734114874720 
-0.07114956498106695 
-0.06626368430536168 
0.003692653346215557 
-0.1335067545017827 
-0.07145202331438567 
-0.003817587143129703 
-0.05340879931655865 
0.03414726480987761 
0.005720185243440765 
-0.1033930194024683 
-0.1490676013963007 
-0.06393851935509436 
0.008512524314882440 
-0.02619268279737555 
0.01542608794953400 
0.1282836499865354 
-0.005951522918864666 
4.982688956409274e-05 
0.09578114162948281 
-0.003317768211649751 
-0.4817531655117016 
0.5257586228595906 
-0.04795784388029986 
0.005192529659418453 
-0.08238447030251785 
-6.646507733420797e-05 
-0.1070009244735687 
-0.06015302610805376 
-0.0005533750106418328 
-0.2869008945851239 
0.003790304559397296 
-0.7713329265728118 
0.02335471000764205 
-0.02414255831744216 
-0.3054704754191202 
-0.1998148730878121 
-0.4307446095563484 
0.02014149220497461 
0.01100332572208115 
-0.03970282140191414 
-0.01728810949472436 
-0.02785979424022474 
-0.04303402485135232 
-0.1112429912242122 
-0.1099920345052458 
-0.009500936452490543 
0.002499739164402271 
0.01660329309633298 
-0.04441856746468675 
-0.2190440746446163 
